<?xml version="1.0"?>
<opencv_storage>
<opencv_ml_svm>
  <format>3</format>
  <svmType>C_SVC</svmType>
  <kernel>
    <type>LINEAR</type></kernel>
  <C>32.</C>
  <term_criteria><iterations>1000</iterations></term_criteria>
  <var_count>3780</var_count>
  <class_count>2</class_count>
  <class_labels type_id="opencv-matrix">
    <rows>2</rows>
    <cols>1</cols>
    <dt>i</dt>
    <data>
      0 1</data></class_labels>
  <sv_total>1</sv_total>
  <support_vectors>
    <_>
      8.84915516e-03 2.44622491e-03 7.87724333e-04 -2.04828824e-03
      2.27255840e-03 -9.05962847e-03 -1.12935025e-02 1.11132246e-02
      2.56608203e-02 -1.24117290e-03 -2.03142664e-03 -2.94233533e-03
      -3.72463046e-03 -2.33778544e-03 -9.47645493e-03 -2.01480347e-03
      1.23322895e-02 1.76448841e-02 -9.44396202e-03 8.24747887e-03
      4.66594147e-03 -8.50332784e-04 -3.14288330e-03 -1.61144249e-02
      -2.31273342e-02 -3.86511954e-03 -3.83063126e-03 -1.07646994e-02
      2.80490983e-03 3.86217609e-03 -1.64608355e-03 -2.57591368e-03
      -2.03372929e-02 -3.18967178e-02 -5.20369457e-03 7.89278280e-03
      -3.46553931e-03 -7.52526452e-04 -3.35997925e-03 -5.20157954e-03
      -5.47356030e-04 -6.72778720e-03 -2.94927927e-03 1.39444936e-02
      1.04980022e-02 3.06721730e-03 -3.86723829e-03 -6.14890782e-03
      2.24914192e-03 5.17067220e-03 2.66492041e-03 7.62376748e-03
      1.78999007e-02 1.09554771e-02 -8.53571668e-03 5.49350400e-03
      1.76294148e-03 -4.25555324e-03 4.04072518e-04 -1.67963710e-02
      -3.25640254e-02 -1.44891422e-02 4.31062799e-04 1.29890232e-03
      1.39444333e-03 1.36052480e-03 3.79901088e-04 8.01898073e-03
      -3.52218561e-03 -1.68547295e-02 -1.03724515e-02 6.05203270e-04
      5.31846611e-03 -4.93899826e-03 -5.10636251e-03 9.93838813e-03
      3.97562515e-03 4.77898400e-03 1.81128504e-03 1.20230112e-02
      2.44415533e-02 4.09749197e-03 9.43657593e-04 -3.36931716e-03
      5.69647970e-03 5.57320472e-03 4.78984741e-03 9.99263581e-03
      1.28478166e-02 2.51560491e-02 -1.45902503e-02 -4.81230626e-03
      -2.03402340e-03 8.35506304e-04 1.13205314e-02 7.24820327e-03
      -1.10324044e-02 -1.57890879e-02 -1.07259611e-02 -2.21627038e-02
      2.97771860e-03 3.34762945e-03 7.21437158e-03 1.04973381e-02
      8.79977923e-03 -3.52531322e-03 -2.10599061e-02 -1.09081371e-02
      -9.19932558e-04 -6.47975889e-04 -7.43379490e-03 3.38995922e-03
      -1.55404233e-03 2.39303336e-03 6.75131194e-03 1.26600014e-02
      2.22804956e-02 5.31966612e-03 -3.48351244e-03 -6.96455501e-03
      3.53904278e-03 1.49757089e-03 1.13554334e-03 4.19310015e-03
      1.27748568e-02 1.95865538e-02 -2.07173508e-02 -1.11393210e-05
      3.62832448e-03 6.24580868e-03 5.35675045e-03 4.64479020e-03
      -1.52829820e-02 -1.61061063e-02 -1.18355220e-02 -1.22816740e-02
      1.17513891e-02 3.75497364e-03 6.99521368e-03 3.42375669e-03
      -2.36140448e-04 -2.42917966e-02 -1.27576776e-02 -5.85402828e-03
      4.56413906e-03 -6.89426786e-04 -5.87557023e-03 1.33000140e-03
      2.96298019e-03 -3.16608232e-03 7.62550684e-04 1.58606600e-02
      9.22375452e-03 1.02592399e-03 -6.31590607e-03 -1.08320499e-03
      -1.15525036e-03 -1.67581788e-03 -6.12935377e-03 2.04417374e-04
      7.34427106e-03 5.22398716e-03 -8.85405298e-03 1.18506895e-02
      2.61889491e-03 3.97741096e-03 4.21817368e-03 -9.22387093e-03
      -1.09492363e-02 -9.61628463e-03 -1.07295765e-02 -1.04798563e-02
      8.82168999e-04 2.57350923e-03 1.53173823e-04 -1.95430336e-03
      -1.52140250e-03 -9.30194557e-03 -1.05549786e-02 -1.45310163e-02
      9.23780957e-04 -7.94968475e-03 2.57128919e-03 2.27924041e-03
      -1.33022945e-02 1.40730187e-03 6.21640403e-03 6.12949720e-03
      3.20775107e-05 1.31954183e-03 -5.70830714e-04 6.96602138e-03
      4.86252736e-03 -6.50553126e-03 4.06857999e-03 4.55659628e-03
      9.57048265e-04 1.31460940e-02 -9.19129513e-03 -3.26583744e-03
      -5.28440985e-04 -1.20050483e-03 1.55133579e-03 7.99745694e-03
      -1.06691644e-02 -5.75146545e-03 -2.14881487e-02 -1.98998433e-02
      -7.35718524e-03 -8.90634581e-03 -3.05690896e-03 1.85892137e-03
      4.46673296e-03 -1.25284016e-04 -6.97689923e-03 -1.51664764e-02
      1.00008845e-02 6.98893657e-03 4.64521674e-03 4.07187548e-03
      1.71641819e-03 1.05629333e-04 -4.22848342e-03 8.88810493e-03
      2.62831077e-02 8.12533312e-03 5.81712089e-03 4.59128339e-03
      -6.44421717e-03 -2.66227615e-03 -1.28745362e-02 -1.47154434e-02
      -2.48913444e-03 2.34257784e-02 -7.96177797e-03 -7.04069110e-03
      -4.28280281e-03 2.69169407e-03 1.50323706e-03 -1.63101882e-03
      -2.00224277e-02 -1.05281612e-02 -3.88568267e-03 8.09679739e-03
      8.21442250e-03 4.03891131e-03 -2.11646967e-03 -1.01945670e-02
      -1.56358201e-02 -3.84567119e-02 -1.38150416e-02 9.01322719e-03
      -2.18671351e-03 1.56153087e-03 5.47365460e-04 -1.07691679e-02
      -4.38396959e-03 -1.06085716e-02 -7.36794062e-03 5.75683720e-04
      1.05308872e-02 8.36829003e-03 6.23896252e-03 -2.01464025e-03
      8.92999233e-04 -1.11849746e-03 8.63228086e-03 1.19497385e-02
      1.57748181e-02 1.40567189e-02 1.25241904e-05 1.13075608e-02
      4.62201843e-03 -1.74198567e-03 -6.37899619e-03 -1.12821739e-02
      -3.71919349e-02 -1.42967319e-02 -7.56418938e-03 -1.29149882e-02
      2.91345362e-03 4.52782959e-03 2.40645860e-03 2.10579863e-04
      4.31306381e-03 -1.59424376e-02 -6.11531269e-03 -1.34517346e-02
      5.57670789e-03 4.30006161e-03 -4.97949123e-03 5.46408771e-03
      3.75211152e-04 8.52904469e-03 9.78797954e-03 1.06194252e-02
      1.84203163e-02 -6.80926489e-04 2.91566970e-03 2.54165474e-03
      -2.93962564e-03 -9.54532716e-03 -1.37664808e-03 1.63733941e-02
      5.99150965e-03 9.46421362e-03 -1.37958750e-02 -4.73455573e-03
      -6.35377690e-03 -7.89482903e-04 -6.63422560e-03 -9.35965963e-03
      -1.75174531e-02 -1.19654033e-02 -1.88558530e-02 -9.27084498e-03
      3.52450181e-04 -7.73811596e-04 -4.02016612e-03 -1.39721995e-02
      -1.41467350e-02 -2.08112504e-02 -1.62979644e-02 -1.62496660e-02
      5.86902397e-03 2.28247140e-03 5.90007426e-03 -4.49582655e-03
      -1.14301601e-02 -2.34058220e-03 1.97259020e-02 1.06865717e-02
      4.72167693e-03 1.81589220e-02 4.01420984e-03 2.94357073e-03
      -7.11143436e-03 -9.77021083e-03 -4.00167657e-03 2.98557710e-03
      1.90043226e-02 2.19664313e-02 -1.49868233e-02 -3.93307116e-03
      3.71485366e-03 -6.83744717e-03 -1.49534978e-02 -1.09353568e-02
      -1.56171480e-02 -1.40199745e-02 -2.24419534e-02 -1.43903280e-02
      -3.87767889e-03 2.89633591e-03 -6.23127399e-03 -1.50532220e-02
      -6.26275130e-03 -1.24717513e-02 -4.06320812e-03 -8.27244390e-03
      1.60438959e-02 -1.88083120e-03 -9.04338900e-03 -1.29153030e-02
      -1.55552914e-02 -5.46793453e-03 6.10973511e-04 1.47550879e-02
      2.36313697e-02 1.19712222e-02 7.78579665e-03 -4.66301222e-04
      -8.41293018e-03 -1.35770468e-02 -2.26992718e-03 1.40569974e-02
      1.74865853e-02 1.51406871e-02 -2.05441825e-02 -7.72038009e-03
      -1.12564713e-02 -1.05428100e-02 -1.47147765e-02 -1.43596577e-02
      -7.98289478e-03 -5.14760264e-04 -1.06305061e-02 -2.00993996e-02
      1.51135062e-03 -1.14333844e-02 -1.13219405e-02 -1.24818031e-02
      -8.66310485e-03 -8.17533955e-03 -9.82343801e-04 -1.63448695e-02
      8.00063499e-05 5.78705641e-03 -2.35540932e-03 -5.91378752e-03
      -1.35306837e-02 -1.17979210e-03 7.58088101e-03 1.00082774e-02
      5.47095248e-03 4.63672215e-03 1.26792099e-02 -7.87136238e-03
      -9.45188943e-03 -1.26313809e-02 8.51703901e-03 1.11542884e-02
      1.78239942e-02 1.06093520e-02 -1.17205326e-02 8.91547929e-03
      -8.86126887e-03 -5.87709760e-03 -1.44857410e-02 -9.49291419e-03
      -1.27949286e-02 -9.18465015e-03 -1.95930358e-02 -8.20728298e-03
      1.25370817e-02 -5.89412823e-03 -1.74732960e-03 -1.99629180e-02
      -6.04451774e-03 -1.18920254e-02 -9.84490849e-03 -1.70982443e-02
      1.46134738e-02 7.85415340e-03 -9.19742323e-03 -1.14198849e-02
      -1.34348962e-02 1.36470154e-03 1.35451276e-02 2.01633461e-02
      2.27227081e-02 6.85251458e-03 1.97246438e-03 -7.00382376e-03
      -1.00822384e-02 -1.55425752e-02 -9.08025820e-03 6.12267526e-03
      6.36930577e-03 1.56935975e-02 -6.19342504e-03 1.95668894e-03
      -3.24033946e-03 -6.12129178e-03 -2.00374015e-02 -7.99436215e-03
      -1.01636369e-02 -1.49453687e-03 -6.51369756e-03 -1.07192062e-02
      -1.09031834e-02 -1.52707212e-02 -1.68814790e-02 -2.15461366e-02
      -9.44704469e-03 -6.31215563e-03 -9.13575199e-03 -7.17752380e-03
      1.99268805e-03 3.05056601e-04 -2.20246310e-03 -1.21238979e-03
      -1.18454527e-02 -6.05398929e-03 9.08465963e-03 9.84729826e-03
      1.16545158e-02 3.63907358e-03 1.16680330e-03 -6.47344114e-03
      -6.10197755e-03 -1.31018795e-02 5.41559071e-04 3.04040615e-03
      2.10893136e-02 2.62094233e-02 -1.02197696e-02 -1.03951683e-02
      -1.59023535e-02 -1.32490555e-02 -2.23039966e-02 -1.45878186e-02
      -4.61411802e-03 -1.15230856e-02 -7.87608139e-03 -4.56436072e-03
      -2.51497258e-03 -1.18322344e-02 -1.24729807e-02 -2.20797919e-02
      -8.91301129e-03 7.38760107e-04 -4.63912264e-03 8.86087713e-04
      5.15688024e-03 -7.42916949e-03 -1.80967003e-02 -1.73711553e-02
      -1.66514087e-02 1.15196873e-03 5.32593857e-03 2.46104747e-02
      1.59333646e-02 6.01157453e-03 -7.73134641e-03 -2.05033086e-02
      -2.05815677e-02 -1.78693719e-02 -4.96725598e-03 4.39959299e-03
      1.54070649e-02 1.04592973e-02 2.77825072e-03 -7.26500386e-03
      -1.54711735e-02 -1.90948993e-02 -2.30999440e-02 -1.10087171e-02
      2.54695420e-03 -8.74032092e-04 1.12754619e-02 7.36646680e-03
      3.08369449e-03 -6.53516455e-03 -7.61736045e-03 -2.65325848e-02
      -1.20605603e-02 -8.91632924e-04 1.11002615e-02 5.75404381e-03
      1.85389314e-02 1.56237027e-02 1.62281785e-02 1.00694709e-02
      9.24180727e-03 8.19956139e-03 -1.06456419e-02 -8.51243641e-03
      -2.14202818e-03 1.41667090e-02 2.24105418e-02 1.94113348e-02
      1.30082965e-02 7.74658332e-03 2.66215671e-03 -2.15672757e-02
      -1.37463138e-02 4.83727967e-03 -8.00979044e-03 1.93675160e-02
      3.08022704e-02 2.09584758e-02 1.87377632e-02 8.03457387e-03
      -7.39569822e-03 -2.56361756e-02 -3.31261531e-02 3.14761442e-03
      2.40727570e-02 2.52330955e-02 2.01116521e-02 1.81559119e-02
      4.48398804e-03 -2.11954247e-02 -2.81704590e-02 -2.39581838e-02
      1.45310638e-02 2.40008626e-02 1.63492355e-02 1.24739707e-02
      1.52512733e-02 2.47139460e-03 -3.24488953e-02 -1.34419268e-02
      1.59494150e-02 1.90146472e-02 1.84706748e-02 1.69489253e-02
      1.23657351e-02 1.85982976e-02 1.00606410e-02 -1.80217680e-02
      -9.17465240e-03 7.19717238e-03 3.68793553e-04 1.84540190e-02
      2.13773809e-02 1.78166777e-02 2.53975410e-02 8.99457373e-04
      -2.98757814e-02 -3.57041396e-02 -2.46884022e-02 -2.80279829e-03
      1.29681854e-02 2.50925180e-02 2.08757930e-02 2.28885785e-02
      1.24903757e-03 -2.85632927e-02 -2.29881685e-02 -2.30624154e-02
      8.00487865e-03 1.45447217e-02 1.66022982e-02 1.15888249e-02
      1.64521802e-02 1.41064823e-02 2.91857612e-03 -1.18050389e-02
      -8.14851653e-03 3.91999120e-03 1.91088524e-02 1.94131080e-02
      1.37446690e-02 1.41570708e-02 1.47478394e-02 2.76030460e-03
      -1.20860701e-02 -5.08730672e-03 -5.39014675e-03 2.11555641e-02
      2.63643451e-02 1.78387333e-02 1.54168373e-02 -9.70424298e-05
      -1.79745276e-02 -2.41026618e-02 -2.63413303e-02 -9.69253201e-03
      8.96905083e-03 1.91981159e-02 1.68740544e-02 1.42952353e-02
      1.47577870e-04 -8.57284479e-03 -1.38443559e-02 -1.45667493e-02
      6.92531699e-03 1.71171762e-02 1.54098887e-02 1.40444851e-02
      1.51148224e-02 1.12473732e-02 -5.75220212e-03 -9.20920819e-03
      -1.09765260e-02 1.12079903e-02 1.82968918e-02 1.46357222e-02
      1.49869137e-02 1.90619342e-02 9.21811070e-03 -6.26521045e-03
      -3.87036824e-03 -1.09874178e-02 -8.47906899e-03 1.07787168e-02
      1.70828737e-02 2.03240719e-02 1.66667085e-02 5.13560744e-03
      -1.23741059e-02 -1.61961131e-02 -1.65391564e-02 -6.14328450e-03
      1.15145184e-02 1.24706896e-02 2.01888550e-02 1.65960677e-02
      -1.98751222e-03 -1.42841125e-02 -1.15119424e-02 -1.72519106e-02
      1.20091336e-02 2.33511329e-02 1.67814083e-02 1.38522079e-02
      1.41086904e-02 6.91913581e-03 3.54977907e-03 -9.20708917e-05
      -8.79993383e-03 1.15573276e-02 2.65120883e-02 2.07028203e-02
      1.62369628e-02 1.44416243e-02 1.26454495e-02 1.57929433e-03
      -4.88239480e-03 -1.23368464e-02 -4.53158468e-03 9.75743774e-03
      7.21485354e-03 8.18462856e-03 1.04765883e-02 -3.14276520e-04
      -1.36335017e-02 -1.89317092e-02 -1.77528337e-02 -6.49254723e-03
      1.40876342e-02 1.25319138e-02 7.05661159e-03 2.85118818e-03
      2.61360127e-03 -2.34138779e-02 -2.36858409e-02 -2.04228945e-02
      1.21974535e-02 2.50975471e-02 1.72215067e-02 1.25022046e-02
      1.91548783e-02 1.83811225e-02 5.84402774e-03 -8.66807345e-03
      -2.20957417e-02 8.98307096e-03 2.40045469e-02 1.50476182e-02
      1.01563428e-02 2.18435917e-02 2.53478084e-02 9.36559308e-03
      -1.26488758e-02 -1.73976719e-02 -1.62207242e-03 2.29585748e-02
      1.86202284e-02 7.86441285e-03 6.75913133e-03 1.00064219e-03
      -3.12021244e-02 -3.61817479e-02 -3.01204268e-02 3.24635091e-03
      3.24039571e-02 1.94813218e-02 1.00426199e-02 1.64436195e-02
      3.97491595e-03 -1.83645748e-02 -3.39699201e-02 -2.38564815e-02
      2.16390826e-02 2.31922138e-02 1.84638239e-02 1.39801754e-02
      1.83740258e-02 1.82683263e-02 3.08792014e-03 -1.10820904e-02
      -7.03071710e-03 2.87727397e-02 3.21489125e-02 1.76054519e-02
      1.27286743e-02 8.66888650e-03 -4.11314162e-04 -2.08554994e-02
      -8.14183056e-03 5.40426839e-03 2.59144302e-03 2.98682228e-02
      1.82723701e-02 4.96550230e-03 1.23630622e-02 1.00109400e-03
      -2.17584241e-02 -3.55814844e-02 -2.65081152e-02 2.44479696e-03
      1.66250635e-02 6.59071468e-03 -1.92056224e-03 2.42194114e-03
      -1.24812499e-02 -3.67076918e-02 -3.51334773e-02 -2.01267563e-02
      2.94668488e-02 3.00437566e-02 1.82676967e-02 9.94001515e-03
      9.30329971e-03 -8.28465782e-05 -2.78384965e-02 -1.42874075e-02
      9.87768732e-03 2.10794508e-02 2.58834735e-02 2.25148313e-02
      1.63342860e-02 1.48556801e-02 9.08500608e-03 -9.82361380e-03
      -1.69370547e-02 -1.67881232e-03 3.88961891e-03 1.44278742e-02
      1.32591156e-02 1.80436054e-03 6.62080199e-03 -8.06839019e-03
      -3.54291461e-02 -3.61364745e-02 -1.56225013e-02 -4.73402906e-03
      1.39995553e-02 2.17542592e-02 8.61581322e-03 9.08842217e-03
      -2.64213583e-03 -2.75030155e-02 -3.17757539e-02 -1.31779881e-02
      2.29060426e-02 2.02389061e-02 1.65562164e-02 1.20201074e-02
      7.27043673e-03 2.49604764e-03 1.71235192e-03 -9.16788355e-03
      -9.42020491e-03 2.35688277e-02 2.69733891e-02 1.78117566e-02
      1.28975017e-02 1.17414333e-02 3.61116021e-03 1.53218582e-03
      -5.52497664e-03 -5.61570562e-03 -1.00633688e-02 2.54074251e-03
      1.63580328e-02 6.89112348e-03 4.41790465e-03 -5.47086028e-03
      -1.84062235e-02 -4.00864407e-02 -2.42757890e-02 -6.31280476e-03
      4.10427386e-03 1.30461380e-02 1.98573712e-03 8.52449797e-03
      -4.30709624e-04 -1.35494741e-02 -3.16583440e-02 -2.87476014e-02
      1.76518038e-02 1.95415523e-02 1.45256435e-02 1.23635018e-02
      1.30700627e-02 5.68086142e-03 -4.21073957e-04 -4.59127361e-03
      1.62520842e-03 1.93362758e-02 2.29107123e-02 1.64082795e-02
      1.41076352e-02 9.64400079e-03 8.04548245e-03 4.62175813e-04
      -1.08349789e-03 1.23520615e-02 -1.16809383e-02 6.88339258e-03
      1.15597136e-02 9.51959868e-04 -1.68327219e-03 -2.69310619e-03
      -2.38654707e-02 -3.41537260e-02 -3.36321592e-02 -4.10924386e-03
      1.34337191e-02 3.98779800e-03 1.86802202e-03 -4.30002622e-03
      -1.59809757e-02 -3.20993736e-02 -3.30458209e-02 -2.08917260e-02
      2.04389058e-02 1.83853228e-02 9.98317450e-03 9.03142616e-03
      7.40256486e-03 3.86784202e-03 5.33903530e-03 5.08510228e-03
      9.53270867e-03 2.40653902e-02 2.38432940e-02 1.11300303e-02
      8.34790524e-03 1.22024566e-02 6.03684632e-04 4.95224958e-03
      3.47787957e-03 3.79264285e-03 -3.54908523e-03 3.20968009e-03
      -1.31708113e-02 -3.11622652e-03 -9.28791647e-04 -2.29995679e-02
      -2.98538990e-02 -2.97559518e-02 -1.63652170e-02 -6.18498446e-03
      -4.12087003e-03 -1.58315320e-02 -7.43188057e-03 1.23290578e-03
      -1.42931612e-02 -1.44831873e-02 -2.60399561e-02 -1.50315305e-02
      2.30384115e-02 2.52474099e-02 1.06826527e-02 6.41094008e-03
      5.93571644e-03 1.40056037e-03 -4.93381033e-03 -7.93287007e-04
      2.21774867e-03 2.47606412e-02 2.25278810e-02 1.45598715e-02
      9.97077487e-03 8.64332914e-03 6.79115718e-03 3.01047839e-04
      1.45580051e-02 2.04420369e-02 -1.57304127e-02 -1.07371621e-02
      -1.22063095e-02 -7.71051366e-03 -7.85459951e-03 -1.27085382e-02
      -2.18881704e-02 -3.10241859e-02 -8.57988000e-03 -1.62556618e-02
      -8.98092799e-03 -3.74454586e-03 1.67000061e-03 1.11941784e-03
      -2.16746912e-03 -2.16096714e-02 -2.33812165e-02 -7.86629226e-03
      2.04933621e-02 2.00296715e-02 1.55274430e-02 1.12269884e-02
      6.61306456e-03 2.46925536e-03 -1.18798902e-02 1.35962348e-02
      2.42471918e-02 1.16858454e-02 1.51833929e-02 1.10476902e-02
      7.97131285e-03 5.89494174e-03 -4.53436922e-04 -1.72001508e-03
      9.46318265e-03 1.58374719e-02 -1.85393449e-02 7.63124204e-04
      5.11006638e-03 8.85126740e-03 1.44686969e-03 -1.28634376e-02
      -4.00325917e-02 -2.50552204e-02 -1.46879349e-02 -6.22718595e-03
      2.74808076e-03 5.65666426e-03 8.21606815e-03 2.75703613e-03
      -2.25547124e-02 -4.47018407e-02 -3.11145186e-02 -1.42523507e-02
      1.35554066e-02 1.47671178e-02 5.03941951e-03 5.98186255e-03
      9.10403859e-03 1.64673605e-03 7.32609676e-03 5.09375241e-03
      9.39926878e-03 1.29763344e-02 1.66964959e-02 9.37185436e-03
      1.00819599e-02 1.37795703e-02 7.60532403e-03 1.75152905e-02
      1.53356930e-02 1.30877625e-02 -8.40348750e-03 9.96092916e-04
      2.90657440e-03 2.69584917e-03 2.33358773e-03 -1.74485818e-02
      -3.11822519e-02 -2.52064206e-02 -2.62886398e-02 -5.29947272e-03
      -9.29250440e-04 3.85585777e-03 5.33291465e-03 1.79980986e-03
      -8.22505821e-03 -2.55468059e-02 -2.64710989e-02 -1.90121084e-02
      1.23915458e-02 1.60020906e-02 7.32963951e-03 9.20101255e-03
      1.00781582e-02 -1.72474491e-03 5.57069248e-03 4.94302157e-03
      1.00924615e-02 2.18491368e-02 2.27859206e-02 1.79982670e-02
      1.38266217e-02 2.99857953e-03 4.45423601e-03 1.22921960e-02
      1.43624125e-02 1.16711827e-02 -1.24192983e-02 2.87375273e-03
      4.25950391e-03 3.72585142e-03 3.71636706e-03 -1.67077966e-02
      -2.01884508e-02 -2.41652578e-02 -3.17071676e-02 -8.84295441e-03
      1.42859267e-02 1.57614127e-02 5.24293352e-03 2.28653051e-04
      -3.98578093e-04 -1.06740687e-02 -2.40356512e-02 -2.67436150e-02
      -1.11652855e-02 2.05729380e-02 2.69974284e-02 2.13202797e-02
      2.32869107e-02 1.71727315e-02 3.63827404e-03 -1.71712805e-02
      -3.70904133e-02 -2.47236271e-03 2.39157584e-02 2.01802142e-02
      1.65894572e-02 2.16014646e-02 8.81207921e-03 -3.70901194e-03
      -2.36483607e-02 -2.82149781e-02 -1.42107410e-02 1.40537024e-02
      1.66983996e-02 1.61367934e-02 1.61694475e-02 4.97586234e-03
      -9.79549251e-03 -1.32946493e-02 -3.13280635e-02 -9.41986963e-03
      1.03251804e-02 1.07906628e-02 9.19672474e-03 1.39007131e-02
      -3.21011670e-04 -6.46551838e-03 -1.48668103e-02 -1.87121518e-02
      5.57261705e-03 1.58085227e-02 1.38019426e-02 1.51045956e-02
      2.49904022e-02 3.58453649e-03 -1.88494306e-02 -2.85457633e-02
      -2.84409039e-02 8.86806753e-03 2.42482740e-02 2.67174114e-02
      1.95001513e-02 2.71200873e-02 1.78577867e-03 -1.50161544e-02
      -2.94526275e-02 -2.22891737e-02 -1.18600316e-02 1.44536737e-02
      1.22166555e-02 6.86015142e-03 1.48191210e-02 2.70055374e-03
      -1.21188639e-02 -2.30780151e-02 -1.54180732e-02 -4.97688353e-03
      1.66064817e-02 1.86826754e-02 2.96811177e-03 1.70096755e-02
      4.56181914e-03 -5.92640974e-03 -2.99545415e-02 -1.16796950e-02
      1.27340062e-03 1.99094377e-02 1.87932905e-02 1.46333575e-02
      1.13847647e-02 -3.30011710e-04 -1.03964601e-02 -2.12868433e-02
      -2.68828571e-02 -3.66629241e-03 2.90321093e-03 7.25733349e-03
      1.30933281e-02 1.33977532e-02 6.13133889e-03 -5.14143193e-03
      -1.58492140e-02 -1.26764579e-02 -1.70607585e-03 1.64840631e-02
      1.35068884e-02 2.05981149e-03 2.77243089e-03 5.41144516e-04
      2.18012763e-04 -2.53721811e-02 -2.78798658e-02 -1.02484226e-02
      5.99419186e-03 2.63036322e-03 5.54445386e-03 4.19202633e-03
      7.56068993e-03 3.72926844e-03 -1.48056364e-02 -1.24946497e-02
      -4.93214931e-04 7.69617688e-03 1.09856483e-02 1.39664439e-02
      1.73016489e-02 1.11702187e-02 -8.01198557e-03 -1.17900455e-02
      -1.53333414e-02 8.80180625e-04 1.13747176e-02 1.10179801e-02
      1.16671072e-02 1.34549895e-02 -1.50744585e-04 -1.19408956e-02
      -2.12313849e-02 -1.14210481e-02 -2.54562148e-03 5.45009412e-03
      7.50242174e-03 4.65799309e-03 4.21749335e-03 4.11242899e-03
      -2.16115336e-03 -1.15167070e-02 -7.19431648e-03 -2.77671753e-03
      1.18134944e-02 1.48931872e-02 7.25744665e-03 1.59769179e-03
      -9.61269718e-03 -1.50551032e-02 -1.74297728e-02 -1.24070048e-02
      4.12342325e-03 2.26741889e-03 6.28872425e-04 2.17914069e-03
      5.28424885e-03 -3.76301981e-03 -1.58010237e-02 -2.27743201e-02
      -8.31682328e-03 2.22137570e-03 5.09507488e-03 8.34327564e-03
      7.23742507e-03 2.53035431e-03 -3.55731160e-03 -1.96626801e-02
      -2.14957315e-02 -1.18299164e-02 2.99475301e-04 1.29540348e-02
      1.41749950e-02 4.40079859e-03 5.67749515e-03 -9.87952482e-03
      -1.49199488e-02 -2.68801171e-02 -1.36230085e-02 -2.65885331e-03
      6.80052070e-03 1.23532321e-02 1.31580494e-02 1.46305962e-02
      -8.53071734e-03 -2.81922165e-02 -3.08065563e-02 -4.00531245e-03
      1.60321221e-03 1.78521667e-02 1.57122314e-02 1.17151206e-02
      2.22977065e-03 -3.31341312e-03 -2.45808717e-02 -3.01048737e-02
      -1.67059451e-02 2.19262904e-03 2.40714997e-02 1.54716950e-02
      1.07450569e-02 5.07764472e-03 -5.34377526e-03 -2.12328769e-02
      -2.37028562e-02 -1.19189480e-02 1.06489484e-03 4.34860028e-03
      8.36172327e-03 1.67801864e-02 1.19531117e-02 -7.04877637e-03
      -3.17374691e-02 -3.20166722e-02 -1.66791808e-02 1.04075242e-02
      8.17013253e-03 5.76794473e-03 1.26240384e-02 3.45547521e-03
      -1.63933858e-02 -2.74948105e-02 -1.77379269e-02 -7.81913567e-03
      4.88626771e-03 2.30296236e-02 1.01312343e-02 4.83707385e-03
      6.44710986e-03 -7.65102077e-03 -2.32274290e-02 -2.42019948e-02
      -1.29233329e-02 1.13877319e-02 1.08023183e-02 5.65981911e-03
      1.86801283e-03 3.07422457e-03 -9.89525020e-03 -3.26462910e-02
      -2.63855420e-02 -1.19933961e-02 6.25182828e-03 9.68907494e-03
      8.92517529e-03 1.01605197e-02 2.71789241e-03 -1.37642436e-02
      -2.20278241e-02 -1.29502509e-02 -3.38423438e-03 7.08210701e-03
      4.27786773e-03 5.37708169e-03 5.44239860e-03 -2.03556148e-03
      -1.13646546e-02 -3.14158462e-02 -1.81354135e-02 -7.98169710e-03
      1.78056955e-02 1.60916913e-02 1.49728218e-02 2.32857768e-03
      1.72483409e-03 -1.07486062e-02 -2.91561503e-02 -2.30177771e-02
      -7.74177164e-03 4.71050199e-03 8.37421976e-03 1.61527600e-02
      1.02517882e-03 4.36055288e-03 -1.26246298e-02 -1.94221791e-02
      -2.39115208e-02 -6.50480529e-03 1.23341624e-02 7.85794109e-03
      6.26922958e-03 2.27168482e-03 -7.55577348e-03 -1.61247756e-02
      -2.77734846e-02 -2.00015139e-02 -6.50181342e-03 2.79435585e-03
      5.25992643e-03 8.40044580e-03 2.82355293e-04 -7.63124274e-03
      -2.61822138e-02 -1.50515614e-02 -1.37330592e-02 -6.63730036e-03
      3.06528411e-03 6.32359553e-03 1.38467820e-02 1.82529946e-03
      3.28970095e-03 -9.82118025e-03 -1.13002118e-02 -3.11410613e-02
      -1.29920430e-02 5.24066854e-03 1.08757801e-02 1.25434212e-02
      1.25039543e-03 8.79356544e-03 2.00131745e-03 -1.53757799e-02
      -2.77931280e-02 -1.65669005e-02 2.55844672e-03 2.74434779e-03
      7.13398447e-03 5.44502342e-04 -2.29943311e-03 -1.60675589e-02
      -1.09790647e-02 -1.31846275e-02 -8.00750963e-03 1.08297104e-02
      2.70053488e-03 6.97131269e-04 -3.57093592e-03 1.46151253e-03
      -1.10012395e-02 -1.55557385e-02 -1.30050462e-02 -6.49562979e-04
      7.47549394e-03 1.28820138e-02 4.81772749e-03 1.29004801e-03
      2.80847400e-03 3.60540557e-03 -1.90935731e-02 -2.93650199e-02
      -1.74678322e-02 1.36411618e-02 1.88239124e-02 7.94144627e-03
      3.52141401e-03 -3.13374214e-04 -6.43807324e-03 -2.56004706e-02
      -3.64472978e-02 -1.55366734e-02 1.45830633e-02 1.41872177e-02
      -3.98373604e-03 -7.66725454e-04 -1.08987105e-03 -7.51276873e-03
      -1.83480904e-02 -1.97518487e-02 1.59846176e-03 1.01049822e-02
      8.09874386e-03 -6.72232173e-03 2.93128658e-03 -2.93737184e-03
      -7.80073879e-03 -2.19381396e-02 -2.26814896e-02 -3.66850873e-03
      1.03658745e-02 1.12477774e-02 -4.87224286e-04 7.14476127e-03
      3.52671067e-03 2.79221975e-04 -2.53949724e-02 -3.12685147e-02
      -2.64307801e-02 3.54378833e-03 1.56681275e-03 -3.86377098e-03
      1.36117917e-03 5.18789003e-03 2.79457611e-03 -1.10305948e-02
      -2.16992777e-02 -1.70398783e-02 1.85897481e-02 5.39215608e-03
      3.32661229e-03 4.81468439e-03 -2.87940056e-04 -8.24145786e-03
      -2.57140808e-02 -1.94957573e-02 -3.42404121e-03 1.62424464e-02
      1.87375257e-03 5.58440201e-03 6.07354427e-03 -4.64223471e-04
      -4.81242500e-03 -2.88091972e-02 -2.43698116e-02 7.28113484e-03
      -3.04772332e-03 -3.91295506e-03 -1.49605342e-03 -1.89826824e-03
      5.99911378e-04 5.37266314e-04 -1.03227869e-02 -1.44662280e-02
      -1.11551182e-02 -7.71028979e-04 5.06674638e-03 6.00277074e-03
      5.89185487e-03 1.25105144e-03 7.94081367e-04 -1.24772144e-02
      -1.34096546e-02 -2.81388639e-03 1.28905186e-02 -3.21442797e-03
      -8.70386325e-03 -4.27292194e-03 -1.11535704e-03 -1.81237468e-03
      -1.78771112e-02 -2.58717071e-02 3.63066816e-03 8.21260212e-04
      8.62143002e-03 -1.95651664e-03 -1.48520106e-03 -5.42958034e-03
      -1.24764163e-02 -2.15371195e-02 -2.05492061e-02 4.61880816e-04
      4.24666330e-03 1.77187603e-02 1.32706733e-02 1.15529727e-02
      7.70922285e-03 -1.10320409e-03 -1.95516311e-02 -1.65207665e-02
      -5.92390029e-03 1.31878220e-02 1.91981401e-02 1.14319446e-02
      1.37551166e-02 7.18788197e-03 -6.02649897e-03 -2.79289726e-02
      -2.38759704e-02 -9.60606150e-03 5.80194825e-03 3.17337736e-03
      6.60443446e-04 3.31146934e-04 -1.38083100e-03 -1.34081189e-02
      -2.50937585e-02 -2.83441208e-02 -7.51082739e-03 4.54710890e-03
      8.19125306e-03 -5.98162925e-03 -1.82652194e-03 -5.32069243e-04
      -1.30088981e-02 -3.54052037e-02 -1.97789576e-02 -2.99323280e-03
      1.11809922e-02 1.20392097e-02 6.02673506e-03 1.35611640e-02
      7.82727730e-03 -2.85284244e-03 -1.53135564e-02 -2.74359807e-02
      -1.72020607e-02 1.64004024e-02 1.34384641e-02 7.11141340e-03
      1.02453167e-02 9.80933383e-03 -1.97046227e-03 -8.48845020e-03
      -2.22201478e-02 -5.79826487e-03 1.82790146e-03 8.53620842e-03
      -5.88244246e-03 7.85471778e-03 8.90074670e-03 -1.16914762e-02
      -2.17274781e-02 -2.82246787e-02 -1.43405814e-02 1.12393079e-02
      5.44405263e-03 -6.18883781e-03 7.20195984e-03 1.67037603e-02
      -1.63580161e-02 -2.29873657e-02 -2.01899186e-02 2.74812453e-03
      2.02341210e-02 2.36003697e-02 8.84462614e-03 9.31138452e-03
      9.27752350e-03 3.84551496e-03 8.66294664e-04 -2.03091782e-02
      -1.51209552e-02 2.52638496e-02 3.31160203e-02 1.50311841e-02
      9.96623654e-03 1.34732798e-02 9.19916388e-03 8.00038967e-03
      -2.52862740e-02 -1.34026175e-02 8.31453409e-03 -4.14554542e-03
      -6.03828346e-03 8.47670902e-03 8.90205521e-03 -1.08008450e-02
      -1.19544640e-02 -3.01222112e-02 -3.22378124e-03 1.25048414e-03
      7.21692387e-03 -3.74265295e-03 7.68358121e-03 9.66481678e-03
      5.65250812e-04 -2.08545998e-02 -3.34483497e-02 -1.94276199e-02
      -1.17326975e-02 -1.18606975e-02 1.18447351e-03 2.94415304e-03
      5.14079537e-03 -1.02528208e-03 -1.08805308e-02 -7.62927812e-03
      -1.78540219e-02 -1.18769892e-02 -7.96828233e-03 2.16376665e-03
      -4.04482562e-04 1.77755195e-03 -3.23723629e-03 -3.53426207e-03
      -6.76362962e-03 -1.39924148e-02 -6.07119501e-03 -1.87760517e-02
      -1.58543419e-02 -2.38190158e-04 4.97991638e-03 1.38407266e-02
      1.12214275e-02 7.39460485e-03 -3.97759536e-03 -6.67327363e-03
      -2.11345572e-02 -5.88208390e-03 6.66397950e-03 9.70564503e-03
      1.11964801e-02 9.50950012e-03 3.73940187e-04 -6.93291472e-03
      -1.70962904e-02 -1.65195309e-03 7.56256108e-04 -5.39596425e-03
      6.54448464e-04 -2.04529497e-03 -1.18486239e-02 -4.06673178e-03
      -8.25091265e-03 -7.80861499e-03 -1.20542420e-03 3.30321654e-03
      -8.14706460e-03 8.23766401e-04 1.29710417e-03 -1.11051016e-02
      -1.23905586e-02 -4.17208625e-03 -5.68434829e-03 -2.67247930e-02
      -1.06387930e-02 -1.53588608e-03 6.45655440e-03 3.35387210e-03
      -4.28982172e-03 -8.60425062e-04 -7.65150134e-03 -4.57052561e-03
      -1.83404796e-02 -1.87461786e-02 -7.06557930e-03 6.00909581e-03
      5.83258783e-03 -5.55358129e-03 7.60606164e-03 -7.33938860e-03
      -7.51574896e-03 -5.66977193e-04 1.83058018e-03 -4.55970364e-03
      -6.49899244e-03 -6.41022390e-03 -1.13853198e-02 -1.77508686e-02
      -2.36026235e-02 -7.58756232e-03 -6.15671976e-03 -2.40446883e-03
      -1.74465659e-03 -4.21837484e-03 -4.49638627e-03 -1.60257728e-03
      1.20898988e-03 -1.99057139e-03 -8.40815622e-03 -2.02206932e-02
      -1.85049530e-02 -6.51886035e-03 -2.15623667e-03 3.69153742e-04
      -6.09900802e-03 1.05124041e-02 -5.49461832e-03 -1.32679241e-02
      -1.85050946e-02 -1.97293535e-02 -1.00105405e-02 -6.93337759e-04
      -7.64872879e-04 -3.00345942e-03 2.20271628e-02 -1.85021060e-03
      -8.77216645e-03 -1.25130117e-02 -4.47647180e-03 -1.66357413e-03
      1.09199609e-03 -6.26271125e-04 -3.68821202e-03 5.29241702e-03
      2.11499515e-03 -7.95719773e-03 -2.54181656e-03 2.34717107e-03
      -1.92560942e-03 -1.47151854e-03 -7.69951753e-03 -1.70955602e-02
      -1.42542431e-02 -1.02580786e-02 -1.92657113e-02 -2.23528035e-02
      -1.56450570e-02 -1.64735527e-03 5.75240888e-03 1.27931510e-03
      2.46967608e-03 1.80317331e-02 -9.42615513e-03 -1.51132606e-02
      -2.01266520e-02 -1.59444809e-02 -1.09482380e-02 8.33794300e-04
      -7.86157325e-03 -7.96971470e-03 2.32531340e-04 -1.06635215e-02
      -7.44429789e-03 1.28150824e-02 1.33141605e-02 2.54120631e-03
      1.73321227e-03 -9.57675278e-03 -1.57324933e-02 -1.77669171e-02
      -1.53104477e-02 -6.92432339e-04 1.90779311e-03 5.59298368e-03
      2.63796980e-03 6.52324036e-03 -1.11248093e-02 -2.11644303e-02
      -2.29676887e-02 -1.54051026e-02 -5.21608582e-03 -1.97672118e-02
      -1.29607944e-02 -1.36545198e-02 -2.10619904e-03 -1.22810146e-02
      -8.98010749e-03 3.75017803e-03 -9.58725438e-03 -4.89859050e-03
      -1.96112413e-02 -2.20191497e-02 -1.55359618e-02 -1.88760716e-03
      -9.03888606e-03 -6.99168397e-03 4.24599880e-03 -1.17521891e-02
      5.09966724e-03 -1.45935426e-02 -1.16633698e-02 1.56391377e-03
      6.07590657e-03 -1.07549625e-02 -2.13090647e-02 -1.38426824e-02
      -9.53671522e-03 9.53065231e-03 -1.07301585e-02 -9.73028690e-03
      1.02860411e-03 -3.87241202e-03 -2.21428610e-02 -1.93304662e-02
      -6.21462241e-03 7.66471308e-03 -1.04340613e-02 -2.15387959e-02
      -2.62509082e-02 -1.89357884e-02 -3.64054414e-03 -1.83824066e-03
      -2.59106117e-03 7.51154870e-03 5.38581936e-03 -5.07370336e-04
      -2.20606327e-02 -3.03856488e-02 -1.28065161e-02 -5.30442502e-03
      -9.96477157e-03 -4.07271553e-03 1.01502398e-02 1.76619403e-02
      6.95647858e-03 -1.40645029e-02 -9.30678565e-03 -1.88312691e-03
      -3.48504307e-03 -1.78000536e-02 -1.18821980e-02 4.79911629e-04
      7.47963320e-03 1.70573790e-03 -1.84056275e-02 -1.95430145e-02
      -6.52614376e-03 -5.94728021e-03 -1.49359489e-02 -1.57515034e-02
      -3.06554674e-03 -1.19037600e-03 -4.99123009e-03 -3.36730219e-02
      -2.73635089e-02 -8.61891732e-03 3.02102626e-03 -4.38996404e-03
      3.41078988e-03 1.38343573e-02 9.87318158e-03 -4.48846258e-03
      -2.39451788e-02 -3.55263576e-02 -1.92500968e-02 -2.28854176e-03
      -5.20561356e-03 2.67121615e-03 2.16565486e-02 1.94987201e-03
      7.73255760e-03 -1.39878560e-02 -1.86961517e-02 -7.64194317e-03
      -1.01930909e-02 -1.81043204e-02 -1.71438046e-02 -4.18776362e-05
      7.86859263e-03 4.77485504e-04 -1.17774606e-02 -1.35155078e-02
      -4.06735484e-03 -9.02418885e-03 -2.77537107e-02 -1.31177604e-02
      -4.18381020e-03 6.82226522e-03 -2.22076685e-03 -2.56292280e-02
      -3.28373760e-02 -1.60479974e-02 -1.59049465e-03 -6.69708150e-03
      1.99738052e-03 1.72118824e-02 7.31984852e-03 -5.12786768e-03
      -2.12042853e-02 -2.81338133e-02 -1.77008621e-02 -2.85529386e-04
      -8.39981437e-03 -1.15305288e-02 5.28181763e-03 9.58235841e-03
      2.39476166e-03 -8.73376615e-03 -1.14857787e-02 -9.65906482e-04
      -5.04248776e-03 -2.15672050e-02 -1.69024561e-02 -2.11159908e-03
      7.06293806e-03 4.05308744e-03 -1.62782744e-02 -1.14918128e-02
      -6.35459553e-03 -9.06735659e-03 -1.80297028e-02 -1.69794392e-02
      -3.30908084e-03 1.20559838e-02 -2.90100067e-03 -1.83961615e-02
      -2.38983072e-02 -1.69920884e-02 -7.25349411e-04 -3.36552504e-03
      -1.56761501e-02 -2.14016251e-03 5.64434985e-03 3.38200200e-03
      -1.66061576e-02 -2.54161991e-02 -2.43188571e-02 -2.91127898e-03
      -4.78037680e-03 -1.25359455e-02 -1.12825148e-02 -2.32031831e-04
      1.47619508e-02 -4.83238604e-03 -1.44021977e-02 -7.72804627e-03
      -9.03780293e-03 -1.24773234e-02 -1.24784205e-02 -8.31592176e-03
      2.42927903e-03 1.37467766e-02 -6.75209239e-03 -2.09830366e-02
      -1.51798641e-02 -1.03680314e-02 -1.54069215e-02 -1.57212634e-02
      -5.81029058e-03 2.36951560e-03 4.96955728e-03 -1.29118413e-02
      -2.70587858e-02 -2.73506064e-02 -1.67331961e-03 -7.35841785e-03
      -9.05837491e-03 -1.20367147e-02 2.27770675e-03 5.32428501e-03
      -1.81598384e-02 -2.66403090e-02 -2.50887275e-02 -3.66296293e-03
      -1.31495027e-02 -1.02488343e-02 -9.22792009e-04 -1.03287946e-03
      1.34160696e-02 -1.09634865e-02 -8.05467833e-03 -1.34267462e-02
      -6.49125548e-03 -1.26657877e-02 -2.14868989e-02 -3.06151155e-03
      6.78739697e-03 8.66187830e-03 -9.21574142e-03 -4.55951737e-03
      -1.08914152e-02 -1.36007350e-02 -1.55121488e-02 -2.98747048e-02
      -2.19266098e-02 9.75828618e-03 -2.85263499e-03 -2.15386581e-02
      -1.63284969e-02 -1.52996946e-02 -4.30419296e-03 -6.85588038e-03
      -1.46310357e-02 -3.47883441e-04 1.15856156e-03 -4.62027499e-03
      -1.42097697e-02 -1.66638177e-02 -2.17234213e-02 -1.54887140e-02
      -6.59219269e-03 -2.01010425e-02 -1.45455571e-02 1.47878909e-05
      4.92259581e-03 -6.75185490e-03 -9.00113303e-03 -8.37741606e-03
      -6.02593273e-03 -8.56084656e-03 -1.51425172e-02 -1.25658866e-02
      1.10260621e-02 1.54570071e-03 -6.28687814e-03 -9.27210413e-03
      -5.03388699e-03 -3.11438437e-03 -9.50455107e-03 -1.19549157e-02
      -1.33808060e-02 2.92101898e-03 -5.52999927e-03 -1.58990882e-02
      -2.04679519e-02 -1.68629158e-02 -9.30170063e-03 -3.38520319e-03
      -8.02382547e-03 -5.71501534e-03 -6.51648501e-04 -4.31414228e-03
      -1.37491431e-02 -2.70781741e-02 -1.97039917e-02 -7.63361715e-03
      -9.89127066e-03 -9.73510835e-03 -7.40262913e-03 -2.74407258e-03
      9.56860650e-03 -1.20640527e-02 -1.37030855e-02 -6.78164791e-03
      -3.13967653e-03 -8.09068047e-03 -1.16143711e-02 -9.92802903e-03
      3.39187775e-03 5.13891084e-03 -7.37142842e-03 -2.20757034e-02
      -1.23123042e-02 -2.88747041e-03 -1.07456697e-02 -1.65401697e-02
      -7.55316438e-03 9.85747855e-03 -5.00552217e-03 -2.65123453e-02
      -3.06395981e-02 -1.43981446e-02 -2.95331003e-03 -1.70497200e-03
      -3.29101668e-03 2.79713864e-03 5.35759330e-03 -3.24973604e-03
      -2.48372890e-02 -3.24551165e-02 -1.62468869e-02 -2.62132240e-03
      2.26820659e-04 -5.46933268e-04 8.70224275e-03 1.31098926e-02
      6.84417272e-03 -3.56554659e-03 -1.70183778e-02 -2.33869022e-03
      5.31935180e-03 -8.06048792e-03 -1.17925247e-02 -9.61939991e-03
      2.74802605e-03 9.54432227e-03 -7.38418894e-04 -2.21229196e-02
      -4.47253464e-03 4.31348896e-03 -1.08980210e-02 -1.27121555e-02
      -1.28943352e-02 6.73067430e-03 -2.78568914e-04 -2.04613283e-02
      -1.96105391e-02 -1.37327034e-02 -2.39670742e-03 -3.09052644e-03
      -3.21648712e-03 7.81478174e-03 1.36050461e-02 -1.06128922e-03
      -2.14606859e-02 -2.63038501e-02 -1.71153117e-02 -1.03933467e-02
      -3.57743725e-03 -6.90609263e-03 3.71393259e-03 2.12812498e-02
      5.53116389e-03 -1.16459960e-02 -1.98957138e-02 -7.84093607e-03
      -5.07619651e-03 -1.02267005e-02 -6.71268208e-03 -1.15714055e-02
      -1.81238109e-03 5.73563389e-03 -1.59035008e-02 -2.25513689e-02
      -2.18162802e-03 2.76167935e-04 -2.20677257e-03 -9.67897102e-03
      -9.31418967e-03 -1.04743280e-02 -1.18622300e-03 -3.06737069e-02
      -2.58055814e-02 -1.33329723e-02 -1.05281826e-02 1.75543537e-03
      8.38463008e-03 1.79135595e-02 1.67192183e-02 9.17061511e-03
      -3.03742718e-02 -2.49222517e-02 -1.28332218e-02 4.16545616e-03
      1.37398280e-02 1.89873595e-02 2.92905774e-02 1.98468193e-02
      -1.44882714e-02 -2.18212772e-02 -7.46385287e-03 -1.05596567e-03
      1.32898679e-02 1.33230789e-02 1.79131106e-02 4.32623457e-03
      -1.04632983e-02 -1.55486437e-02 -2.80007068e-02 -8.99575092e-03
      4.02666442e-03 1.47221452e-02 1.05913635e-02 1.22292163e-02
      -2.41235341e-03 -6.36346685e-03 -1.02781700e-02 -1.42461937e-02
      -4.77306172e-03 -7.21162185e-03 2.15404760e-02 7.16059469e-03
      1.46753080e-02 6.92201313e-03 -5.60435047e-03 -1.10757826e-02
      -7.93334469e-03 -5.25873713e-03 1.48173783e-03 2.13669166e-02
      8.20606109e-03 8.70281179e-03 -1.39087948e-04 2.30029132e-03
      -1.49157252e-02 -3.39350998e-02 -1.56450123e-02 3.71886580e-03
      1.39770620e-02 6.73223706e-03 2.33453047e-03 2.29184446e-03
      2.59819231e-03 -4.75399243e-03 -2.84482539e-02 -1.64618734e-02
      -9.52237635e-04 1.74281690e-02 1.03868833e-02 1.14993528e-02
      1.63278971e-02 1.77250511e-03 -9.41046141e-03 -1.91324949e-02
      -5.91591699e-03 1.17885498e-02 2.12555565e-02 1.18466783e-02
      8.19930620e-03 -1.09187851e-03 4.07108339e-03 -1.20256599e-02
      -1.33272521e-02 -5.56616392e-03 1.26420949e-02 2.47274693e-02
      1.62013676e-02 1.67084895e-02 8.74511991e-03 -9.11413413e-03
      -1.43448180e-02 -3.32519561e-02 -1.71302781e-02 -5.61668817e-03
      9.29793622e-03 1.02825128e-02 1.27843432e-02 2.29580551e-02
      3.22618079e-03 -1.67523306e-02 -2.20303014e-02 -1.39135625e-02
      -6.21500844e-03 1.33294193e-02 1.38455713e-02 1.29111977e-02
      3.00377402e-02 -2.68042996e-03 -1.40324989e-02 -1.49514023e-02
      -1.55344252e-02 -1.83324824e-04 1.69648081e-02 1.44383181e-02
      1.77904572e-02 1.09746717e-02 -8.04952905e-03 -7.60438060e-03
      -6.87992061e-03 -6.67596515e-03 1.97246927e-03 2.31681783e-02
      2.46241391e-02 1.63017493e-02 1.75939426e-02 3.20150680e-03
      -2.41493452e-02 -2.52724383e-02 -2.14216276e-03 3.04054841e-03
      1.47720184e-02 8.55577085e-03 7.45516829e-03 3.00157219e-02
      -4.66490537e-03 -2.40815710e-02 -2.89452635e-02 -1.64863896e-02
      -5.23106521e-03 7.93163199e-03 2.12682574e-03 8.88973102e-03
      1.64466072e-02 -1.19331358e-02 -1.43478559e-02 -9.39568225e-03
      -3.12633812e-03 1.33107230e-02 2.37556025e-02 1.52263790e-02
      8.74320511e-03 2.32530758e-02 -5.05008223e-03 -1.73178241e-02
      -1.33213792e-02 -1.34969410e-02 6.55837450e-03 1.70853548e-02
      7.56471651e-03 1.02648232e-02 1.88227240e-02 -1.58792473e-02
      -1.82070397e-02 -2.87722293e-02 -2.33890750e-02 -1.01452051e-02
      2.74374057e-03 -4.57721204e-03 3.24857235e-03 1.55914025e-02
      -2.27146409e-03 -1.31751914e-02 -2.67320964e-02 -1.86851881e-02
      -8.16277228e-03 2.46571633e-03 -1.75256608e-03 1.15417142e-03
      1.37882344e-02 3.83025297e-04 -7.93082453e-03 -1.50694055e-02
      -7.75160920e-03 1.31316110e-03 4.93287249e-03 3.81974387e-03
      8.09286349e-03 1.04540000e-02 -1.15173524e-02 -2.60667037e-03
      -2.10842863e-02 -1.23105356e-02 -3.59506899e-04 1.05307624e-03
      5.63525176e-03 6.73871255e-03 9.60193761e-03 8.63479078e-03
      -1.67398471e-02 -2.81826686e-02 -1.42755723e-02 -1.49198221e-02
      -9.05022374e-04 2.66087567e-03 4.39895457e-03 1.32543519e-02
      9.90207307e-03 -8.78103171e-03 -2.72896532e-02 -2.15960890e-02
      -1.73567291e-02 1.11487857e-03 1.41302706e-03 6.86319545e-03
      1.30655598e-02 2.24063639e-02 -5.46654221e-03 -2.57957429e-02
      -2.04674322e-02 -8.00036360e-03 5.55973779e-03 9.02987365e-03
      5.45232790e-03 6.42647315e-03 6.57639885e-03 1.32230736e-04
      -2.40480211e-02 -2.09267773e-02 -1.25108100e-02 7.99437892e-03
      7.46589852e-03 5.03165275e-03 1.70832071e-02 7.89395627e-03
      -9.49513167e-03 -4.04349118e-02 -3.11544016e-02 -5.76089043e-03
      9.67184920e-03 4.40898212e-03 7.63699971e-03 1.84476636e-02
      2.27522776e-02 -9.20596346e-03 -3.90618518e-02 -4.06999439e-02
      -1.23943584e-02 5.41590247e-03 2.74669798e-03 7.68527575e-03
      2.25553438e-02 1.19482270e-02 -1.54155015e-03 -3.17847803e-02
      -2.92151682e-02 -5.64311584e-03 9.27673746e-03 4.68650134e-03
      7.75811030e-03 2.23439876e-02 1.61782987e-02 -5.42364898e-04
      -2.52302568e-02 -2.79980637e-02 -5.57246152e-03 7.35171419e-03
      5.21674799e-03 1.23980585e-02 2.19378080e-02 1.35462116e-02
      -8.86563305e-03 -3.74259762e-02 -3.60546708e-02 -8.96433927e-03
      3.80753609e-03 -4.84902230e-05 5.21695381e-03 1.91450920e-02
      1.38109075e-02 -8.23777169e-03 -2.94971801e-02 -3.92479934e-02
      -1.46056348e-02 7.15580396e-03 2.00820412e-03 2.64080497e-03
      8.59128777e-03 1.25675593e-02 1.13808701e-03 -2.10470501e-02
      -2.28253156e-02 -2.33353674e-03 8.03698227e-03 2.24351347e-03
      9.15953983e-03 1.99692622e-02 2.01590490e-02 1.69599953e-03
      -1.91801079e-02 -2.65071914e-02 -7.81809445e-03 1.65370211e-03
      1.71601889e-03 1.01856748e-02 1.77194625e-02 1.73478890e-02
      -3.47298104e-03 -2.50271894e-02 -3.24819945e-02 -1.25304274e-02
      9.77726933e-03 4.45396407e-03 9.32997966e-04 5.66184055e-03
      8.80449824e-03 1.08106569e-05 -2.75095962e-02 -3.31763253e-02
      -2.34994572e-02 3.47590726e-03 2.91528157e-03 7.30928790e-04
      7.51709938e-03 4.56458097e-03 -6.81669102e-04 -2.41075493e-02
      -2.23356150e-02 -6.54386869e-03 3.79575253e-03 9.25652124e-03
      1.35033149e-02 1.77348405e-02 9.15534608e-03 1.38751196e-03
      -2.62006596e-02 -2.83597242e-02 1.38541765e-03 1.39100552e-02
      1.44746518e-02 2.28574220e-02 2.71852016e-02 1.26681197e-02
      -5.95848076e-04 -1.83531232e-02 -3.48179489e-02 -2.53992621e-02
      7.23901391e-03 2.89550400e-03 3.40923574e-03 5.88797592e-03
      9.74213891e-03 -6.89327077e-04 -2.33368799e-02 -2.41556689e-02
      -1.88773945e-02 8.50330852e-03 6.84564409e-04 2.32207798e-03
      3.08219041e-03 -4.00180556e-03 1.51898086e-04 -1.11505054e-02
      -2.98943315e-02 -4.21565818e-03 1.15774004e-02 1.37372129e-02
      1.95044540e-02 2.19856072e-02 1.29768103e-02 -1.66647660e-03
      -1.03755249e-02 -1.64316464e-02 -1.04274070e-02 9.48247313e-03
      7.49358581e-03 3.91282234e-03 2.50641047e-03 -3.16159963e-03
      -7.31107686e-03 -2.29736250e-02 -1.60056688e-02 -1.38584645e-02
      9.61826183e-03 6.26345305e-03 2.24827294e-04 5.31139504e-03
      -1.98624190e-03 -8.05726741e-03 -1.72713585e-02 -2.01064162e-02
      -1.45008704e-02 4.00508801e-03 1.03211543e-02 2.65399204e-03
      3.08889989e-03 3.54816602e-03 1.14103162e-03 -1.42705850e-02
      -1.61935072e-02 -5.85439941e-03 1.02031212e-02 7.24122440e-03
      1.34061079e-03 3.51259368e-03 -3.01628769e-03 -2.56728870e-03
      -2.07112487e-02 -2.15597283e-02 1.27945634e-04 1.17068263e-02
      1.04080215e-02 6.30039303e-03 9.33295116e-03 9.93237179e-03
      -1.30178127e-02 -1.91097837e-02 -2.26431638e-02 -1.40080769e-02
      1.62035794e-04 5.99159161e-03 4.05223621e-03 7.18941540e-03
      1.99901348e-04 -7.99320545e-03 -2.49060020e-02 -3.30393836e-02
      -2.03383360e-02 -1.23558275e-03 1.03594211e-03 1.45083352e-03
      7.71340216e-03 -8.39994289e-03 -4.98083304e-04 -1.53139792e-02
      -1.47443274e-02 -2.47427938e-03 7.78591121e-03 1.01834964e-02
      8.90367012e-03 1.42084211e-02 1.28021333e-02 -1.63000124e-03
      -1.75315160e-02 -1.46027962e-02 -3.14194267e-03 1.10177984e-02
      1.78655349e-02 1.57753564e-02 1.71706621e-02 7.93596543e-03
      -9.16722324e-03 -2.85794232e-02 -3.24187949e-02 -1.23586999e-02
      5.82052534e-03 6.29855646e-03 4.49857768e-03 1.02992505e-02
      -3.90221644e-03 -1.22511126e-02 -3.84581648e-02 -3.33362781e-02
      -1.26804160e-02 -8.77143117e-04 3.31500685e-03 2.74616037e-03
      7.01459497e-03 1.34526182e-03 2.00664718e-03 -1.65294819e-02
      -1.43143199e-02 5.34693711e-03 1.41908620e-02 1.52034461e-02
      1.62093639e-02 2.21877657e-02 9.21199284e-03 3.31506692e-03
      -1.03426082e-02 -1.09629668e-02 -1.97689328e-03 -8.44719703e-04
      6.81310054e-03 1.33995125e-02 1.43418005e-02 1.40915671e-02
      -1.30547052e-02 -3.80171128e-02 -2.60662269e-02 -1.71579700e-02
      -5.42378519e-03 -2.08236603e-03 1.67724153e-03 5.90059021e-03
      3.15886037e-03 -1.41491983e-02 -4.02717777e-02 -3.74098197e-02
      -1.59106627e-02 -2.50985753e-03 4.48114611e-03 7.60829961e-03
      1.24081559e-02 4.76502022e-03 -4.85344930e-03 -6.87754108e-03
      -3.91291454e-03 -5.09401178e-03 -3.79628706e-04 7.64891738e-03
      1.27082607e-02 1.05435038e-02 1.34346802e-02 6.66367076e-03
      -9.95416287e-03 -4.14386485e-03 9.29476134e-03 1.06372023e-02
      1.71473958e-02 1.86735000e-02 2.51970682e-02 2.55547147e-02
      -1.93668976e-02 -3.96454930e-02 -4.25863154e-02 -2.34842673e-02
      -1.47818243e-02 8.51588149e-04 1.32128806e-03 1.16175823e-02
      -3.51068971e-04 -8.04682728e-03 -3.63692939e-02 -4.42275740e-02
      -1.23242838e-02 6.43116096e-03 1.91908665e-02 1.69537291e-02
      2.82836091e-02 1.23776635e-02 2.31771893e-03 -1.71270370e-02
      -2.51888279e-02 -4.11542453e-04 1.04873732e-03 6.62190700e-03
      7.72786327e-03 1.52559672e-02 1.35972099e-02 1.81783214e-02
      -1.53367000e-03 -1.13038458e-02 1.02350106e-02 1.32556269e-02
      1.90527719e-02 1.40353339e-02 2.54413299e-02 2.08881926e-02
      -1.26455107e-03 -1.55910198e-02 -1.68056265e-02 -9.19498317e-03
      9.85779334e-03 -2.98830168e-03 -1.31520897e-03 -4.95877303e-03
      -7.52596476e-04 -3.01335938e-03 -1.29919220e-02 -1.64474081e-02
      -5.02810231e-04 1.72427595e-02 2.06364971e-03 -9.03824402e-04
      -1.10672554e-02 -2.21021893e-03 5.65118506e-04 -5.52869868e-04
      -9.62879416e-03 1.67724583e-03 1.48301516e-02 6.17455319e-03
      2.12628371e-03 2.76952353e-03 2.54232273e-03 7.29332864e-03
      5.69019001e-03 -7.80757237e-03 1.04238456e-02 1.89571027e-02
      7.62805855e-03 8.72463081e-03 8.59125890e-03 -4.18498227e-03
      -4.11683228e-03 -1.08225886e-02 -6.00975007e-03 1.30717773e-02
      2.26776227e-02 1.14436112e-02 6.79233484e-03 -8.71971808e-03
      4.94589284e-03 -8.46111495e-03 -1.90501958e-02 -7.59898219e-03
      1.10099418e-02 2.16175690e-02 1.68761984e-02 1.33353928e-02
      1.31255959e-03 -3.07544228e-03 3.53422691e-03 1.40892109e-04
      -2.98146927e-03 1.02776140e-02 1.82580501e-02 8.32318235e-03
      7.71093043e-03 4.69436403e-03 1.09141821e-03 5.57517516e-04
      -7.48061482e-03 -7.73659768e-03 -2.23330106e-04 1.21119386e-02
      8.50687455e-03 9.42985062e-03 5.45733655e-03 -2.08137534e-03
      -1.32521922e-02 -1.87484045e-02 -1.99428927e-02 1.96008099e-04
      1.58212688e-02 1.01744635e-02 1.13229947e-02 2.79484224e-03
      -1.06390668e-02 -5.98287489e-03 -3.15092970e-03 -4.25800402e-03
      4.70734341e-03 1.75489262e-02 1.67772174e-02 1.31094111e-02
      6.03881385e-03 -9.46098380e-03 4.39948682e-03 -3.36462678e-03
      -1.21138906e-02 3.96732685e-05 1.00066271e-02 6.53780764e-03
      7.74935586e-03 8.71557090e-03 -5.76161826e-03 1.53095396e-02
      7.20093492e-03 4.26700013e-03 5.58187393e-03 7.36474013e-03
      1.13886110e-02 1.69185512e-02 1.42373331e-02 -1.48311327e-03
      -1.59565937e-02 -1.55293196e-02 -4.86434950e-03 8.54152814e-03
      1.80379599e-02 7.91637506e-03 6.10235892e-03 6.80916337e-03
      -1.57704446e-02 -2.12496743e-02 -2.01851353e-02 -5.46422927e-03
      5.97766321e-03 1.36457104e-02 2.37739226e-03 6.17841398e-03
      3.74540011e-03 -1.58512462e-02 8.11911840e-03 7.49796117e-03
      3.76036647e-03 7.22923363e-03 9.44389030e-03 7.16609601e-03
      1.09272171e-02 7.64153572e-03 -3.05625284e-03 -3.91571131e-03
      4.42369143e-03 -5.63743385e-03 1.46836545e-02 1.22053931e-02
      1.08022494e-02 1.73220821e-02 1.16714733e-02 5.25823934e-03
      -1.15380436e-02 -2.10753195e-02 -1.05477292e-02 4.95101651e-03
      7.51226302e-03 6.98193442e-03 1.17136408e-02 3.69698275e-03
      -7.55813252e-03 -7.95038138e-03 -2.62405276e-02 -2.87530348e-02
      -3.01713403e-03 4.95912088e-03 6.03108341e-03 5.24126785e-03
      -5.23861451e-03 2.73155235e-03 3.72009608e-03 -4.32381965e-03
      -1.32926712e-02 1.68993827e-02 1.30141443e-02 1.31535288e-02
      2.29696576e-02 1.65983904e-02 1.20855607e-02 3.23969085e-04
      -6.99249422e-03 -1.80099066e-02 5.22664748e-04 1.44876307e-02
      1.29241403e-02 1.79259218e-02 2.07391512e-02 2.28743963e-02
      -9.13620368e-03 -3.42838727e-02 -3.22663300e-02 -2.35316297e-03
      9.91519168e-03 9.20230430e-03 6.70004915e-03 1.81603082e-03
      1.00659151e-02 -9.28459037e-03 -2.97223683e-02 -3.27466875e-02
      -6.48249965e-03 9.85510275e-03 1.20926229e-02 1.13538224e-02
      8.78947787e-03 1.10487295e-02 1.91406941e-03 -1.38560180e-02
      -1.64870024e-02 7.62178609e-03 2.24761181e-02 1.63194910e-02
      1.66407786e-02 1.57777742e-02 2.33515799e-02 3.85672250e-03
      -1.04620904e-02 -2.21227258e-02 7.70228403e-03 1.98835488e-02
      1.79916676e-02 1.80800483e-02 1.60003696e-02 2.34257691e-02
      -1.00507503e-02 -2.50999536e-02 -2.89424360e-02 -6.38254639e-03
      7.38878315e-03 7.68948160e-03 8.41879938e-03 1.57357175e-02
      3.81331146e-03 -5.52413985e-03 -2.39398647e-02 -2.39672661e-02
      -3.69853759e-03 5.21709817e-03 2.24091252e-03 8.11532885e-03
      1.41085433e-02 4.29617055e-03 4.48805233e-03 -4.26795520e-03
      -2.23000199e-02 2.93851574e-03 1.04992641e-02 9.70177352e-03
      1.42911160e-02 1.78886857e-02 1.84787381e-02 1.87761476e-03
      1.54532946e-03 -1.23247430e-02 3.76283098e-03 5.52570866e-03
      -4.26851002e-05 9.82542057e-03 2.11250167e-02 1.46973198e-02
      -1.12605505e-02 -1.96990091e-02 -2.92680953e-02 -1.29964119e-02
      3.18498304e-03 -2.89340713e-03 3.66336294e-03 6.13545161e-03
      1.49264804e-03 -9.80916247e-03 -1.65603794e-02 -2.54984964e-02
      -1.12830335e-02 2.05594144e-04 -1.24422112e-03 2.63733626e-03
      5.98318130e-03 -4.57455078e-03 8.17704538e-04 6.90557295e-03
      -1.20571880e-02 -3.60359694e-03 5.14903385e-03 -1.71594511e-04
      1.86692236e-03 1.27916178e-02 8.97030719e-03 1.15958517e-02
      1.01919901e-02 -8.48034583e-03 -4.48024337e-04 8.26678332e-03
      4.35038004e-03 5.53176180e-03 1.64768379e-02 6.61794143e-03
      -1.88676789e-02 -2.62933876e-02 -2.62273420e-02 -1.22232186e-02
      -2.35084933e-03 -1.84883480e-03 -3.98034975e-03 -3.26583069e-03
      -1.28935631e-02 -1.15086902e-02 -1.79972593e-02 -2.57996283e-02
      -2.36633187e-03 9.71649680e-03 -3.94167379e-03 7.64312409e-03
      9.81892273e-03 -6.76610554e-03 1.31592415e-02 7.13407993e-03
      -8.57494771e-03 2.04396877e-03 7.54558668e-03 2.09005876e-03
      2.21010647e-03 1.09116370e-02 2.52531096e-03 1.38486633e-02
      1.24810794e-02 3.54797998e-03 1.27500976e-02 1.42592108e-02
      2.01195083e-03 1.09918714e-02 1.82580743e-02 1.21622020e-02
      -2.40129363e-02 -1.32193379e-02 -2.56558042e-02 -1.49470093e-02
      -2.46326835e-03 -4.93046502e-03 1.44009327e-03 9.48538817e-03
      -1.84163786e-02 -2.47800909e-02 -1.06374919e-02 -2.13491563e-02
      -1.59591101e-02 -7.54747959e-03 -6.48343796e-03 -1.01209851e-02
      -7.98316672e-03 -2.83801798e-02 1.16858268e-02 6.96458621e-03
      7.18551083e-03 5.99082606e-03 6.29750313e-03 9.71665257e-04
      1.14723034e-02 1.69847999e-02 1.24784699e-02 1.74100157e-02
      1.53740486e-02 6.49977848e-03 3.35234636e-03 6.58130564e-04
      2.12128065e-03 1.15748225e-02 2.02258900e-02 1.86904520e-02
      -1.20234927e-02 -1.44692650e-02 -2.22986042e-02 -1.09861745e-02
      -4.03256994e-03 -1.19113335e-02 -1.60875563e-02 -2.09645722e-02
      -2.15795785e-02 -1.37471044e-02 -1.86896343e-02 -3.00790556e-02
      -6.25905348e-03 1.65196776e-03 -8.49117525e-03 -1.55246034e-02
      -1.51247475e-02 -1.20267523e-02 2.94351224e-02 1.56669077e-02
      6.84145431e-04 5.47362398e-03 3.95743037e-03 9.25418281e-04
      8.32834560e-03 2.42089238e-02 2.70333942e-02 2.78255213e-02
      1.65435579e-02 -8.40883981e-03 1.72384782e-03 1.91349268e-03
      -1.15972164e-03 6.84440974e-03 1.86433066e-02 2.35818531e-02
      -1.63650904e-02 -1.32487603e-02 -2.55729798e-02 -1.24886455e-02
      -3.83023079e-03 -4.80691716e-03 -9.38668288e-03 -1.45665584e-02
      -1.31032635e-02 -1.56447403e-02 -1.03434175e-02 -2.57843770e-02
      -8.83239694e-03 9.30700626e-04 3.67063121e-03 -4.37271455e-03
      -1.73309464e-02 -1.05025582e-02 1.47974957e-02 1.69148650e-02
      -4.05258499e-03 1.93944480e-03 7.69717910e-04 -2.68331933e-04
      4.77786828e-03 1.30762784e-02 1.31911235e-02 1.75672621e-02
      2.07668245e-02 1.14064608e-02 4.21134895e-03 1.88478909e-03
      2.64408626e-03 2.89121573e-03 7.44359754e-03 1.34609891e-02
      -1.05511723e-02 -1.21288039e-02 -3.31652872e-02 -1.15758739e-02
      2.71447725e-03 -3.78832337e-03 -7.12856045e-03 -1.43508669e-02
      -8.04432854e-03 -6.07395358e-03 -2.20823046e-02 -2.85855345e-02
      -1.55906789e-02 -4.81903926e-03 -1.07023716e-02 -5.87512413e-03
      -1.59238558e-02 -1.36150131e-02 1.78632364e-02 1.53584620e-02
      -2.39347620e-03 -5.96075377e-04 -1.05083070e-03 2.88191841e-05
      5.07667754e-03 4.22082888e-03 1.27031161e-02 1.22640757e-02
      1.54021420e-02 -1.05450563e-04 3.93712427e-03 1.68123911e-03
      1.16778468e-03 6.93677738e-03 9.75282304e-03 1.35972155e-02
      -9.36347898e-03 -1.12801967e-02 -2.69686095e-02 -2.35345457e-02
      -1.67335402e-02 -8.18249956e-03 -3.95241426e-03 -1.52782304e-02
      -1.75253041e-02 -3.55140073e-03 -1.62275918e-02 -1.85244307e-02
      -1.08287595e-02 -1.05844745e-02 -5.48760127e-03 -1.10550341e-03
      6.80496625e-04 -9.85347014e-03 8.52605328e-03 1.92645323e-02
      7.95102492e-03 3.23959929e-03 1.58427726e-03 2.62655754e-04
      4.70412383e-03 8.37358274e-03 1.11998348e-02 1.06966207e-02
      2.24631820e-02 1.24534834e-02 7.19183404e-03 -8.74475401e-04
      -1.69763353e-03 2.61137797e-03 1.13825370e-02 1.63937686e-03
      1.46289449e-03 -8.56004842e-03 -2.29610521e-02 -1.12905726e-02
      -1.04574831e-02 -5.92026114e-03 -8.26593302e-03 -4.33176616e-03
      -1.67191774e-02 1.58635341e-03 -8.23205410e-05 -1.75621826e-02
      -1.02488305e-02 -1.08935041e-02 -1.00664236e-03 -6.40467415e-03
      1.66511408e-03 -5.90939820e-03 2.91602639e-03 9.31226742e-03
      1.90333126e-03 3.05919931e-03 -3.92194744e-03 -8.96157417e-03
      -1.04956171e-02 8.30394041e-04 -8.11936427e-03 9.61039215e-03
      1.37655502e-02 5.41870994e-03 -9.70416004e-05 -4.26643388e-03
      -1.40565658e-06 -2.96615507e-03 8.81905016e-03 5.18104434e-03
      5.32433344e-03 4.06546518e-04 -9.38018225e-03 3.69905657e-03
      1.01811169e-02 -9.91658773e-04 -1.33379325e-02 2.18197983e-03
      5.71200578e-03 1.28940679e-02 1.00969551e-02 -1.40041588e-02
      -2.53126235e-03 3.64205823e-03 2.58709816e-03 -6.52883342e-03
      5.30540769e-04 -5.68937045e-03 2.24404465e-02 7.91646633e-03
      -1.87512431e-02 -5.38314553e-03 1.01072073e-03 -6.38476899e-03
      -1.45665156e-02 -4.61197970e-03 1.04984213e-02 2.62666792e-02
      8.09275918e-03 -2.46928371e-02 -1.04166176e-02 -2.69356975e-03
      -1.27008874e-02 -1.70406289e-02 -1.13057988e-02 1.44546544e-02
      1.19247129e-02 2.07286631e-03 -2.25187149e-02 -1.02625582e-02
      -2.59957090e-03 3.96970706e-03 -4.73599182e-03 -7.38203153e-03
      -6.16760924e-03 1.40052438e-02 1.07902326e-02 -1.87735949e-02
      -1.23418663e-02 -8.62530991e-03 2.35318299e-03 -7.52354215e-04
      -5.01354644e-03 -5.07240882e-03 3.24843824e-02 1.50853917e-02
      -2.51846761e-02 -1.28137637e-02 -6.03757380e-03 -6.58695539e-03
      -1.33205261e-02 -5.46751451e-03 1.49111850e-02 3.06110028e-02
      2.36475058e-02 -1.22507345e-02 -6.98554842e-03 -7.23172817e-03
      1.85450434e-03 -1.10847941e-02 -1.11361057e-03 2.80103162e-02
      3.66992108e-03 1.06885489e-02 -2.02316735e-02 -9.04525910e-03
      -1.00387530e-02 6.43356761e-04 -4.74844268e-03 -6.97406614e-03
      -1.60449296e-02 1.39268562e-02 1.99422631e-02 -1.15757491e-02
      -4.21945791e-04 -1.62469188e-03 7.60017568e-03 2.59312382e-03
      2.13225314e-04 -1.14850337e-02 3.02068461e-02 2.73822173e-02
      -6.76827412e-03 -3.64636863e-03 -9.74058732e-03 -3.66521860e-03
      -1.49270277e-02 -1.10241054e-02 9.21604037e-03 2.52736136e-02
      2.24751681e-02 -1.21463342e-02 -5.08258631e-03 -1.09104505e-02
      5.03951218e-04 -1.79059096e-02 -1.35479039e-02 1.52775543e-02
      1.09550096e-02 1.29744345e-02 -1.76694989e-02 1.83214841e-03
      -3.14632268e-03 -3.45518958e-04 -7.68307364e-03 -5.53939608e-04
      -9.92782880e-03 1.12274825e-03 -8.91102478e-04 -1.97085012e-02
      -5.16821514e-04 -4.35899897e-03 4.35202941e-03 3.73585545e-03
      8.43795482e-03 -5.64111210e-03 2.55701132e-02 4.07948531e-03
      -2.93928832e-02 -3.48025770e-03 -5.54043893e-03 -5.69365453e-04
      -1.61771886e-02 -6.48879679e-03 1.40664615e-02 2.07713675e-02
      4.26020660e-03 -2.41236296e-02 -9.00646672e-03 -5.24362596e-03
      6.65015820e-03 -1.26426073e-03 9.42623988e-03 1.78773198e-02
      1.00281872e-02 -1.39845116e-02 -3.27694751e-02 -6.05060952e-03
      -3.02619208e-03 2.54431530e-03 7.24449893e-03 8.49942025e-03
      7.36919511e-03 1.36850039e-02 -1.49258003e-02 -2.82178223e-02
      -8.15484580e-03 2.23743293e-04 1.16231292e-03 6.39731705e-04
      3.23290448e-03 1.36417011e-02 2.28809975e-02 4.56064474e-03
      -2.47926228e-02 -1.78715903e-02 -4.65560099e-03 3.95421172e-03
      3.57995764e-03 8.96174088e-03 1.83861926e-02 2.62831524e-02
      -2.02088570e-03 -1.56726129e-02 -6.16713474e-03 -5.05292648e-03
      -6.50292914e-03 -3.42437299e-03 -1.31435134e-03 2.12543961e-02
      2.42102798e-03 -1.61847342e-02 -2.26794463e-02 -4.85697249e-03
      1.12349084e-02 7.34508736e-03 5.97422896e-03 7.36663758e-04
      9.04184766e-03 1.16690621e-03 -1.55967977e-02 -2.97592524e-02
      -4.92126495e-03 2.41203280e-03 5.69125637e-03 8.32728483e-03
      -4.30264306e-04 9.47420206e-03 1.25518022e-02 -2.95363506e-03
      -1.04559772e-02 -4.73517273e-03 -1.65908234e-04 -4.37738467e-03
      3.09647899e-03 3.63176200e-03 1.20865135e-02 8.91722552e-03
      2.20543286e-03 -1.17057078e-02 -5.27683366e-03 1.74141023e-03
      3.41167278e-03 8.71817302e-03 1.99801615e-03 1.15219736e-02
      7.01353652e-03 -1.33360026e-03 -2.59315465e-02 -8.59885011e-03
      -1.05079310e-02 -3.76407499e-03 3.24023631e-03 1.50470107e-04
      1.58918742e-02 6.98329834e-03 1.25555061e-02 -2.33142283e-02
      -1.07315704e-02 -1.19001232e-02 -1.30973486e-02 -7.03697372e-03
      -4.34752321e-03 1.16753532e-03 1.88860949e-02 8.34577065e-03
      -1.63893308e-02 -7.02909008e-03 -5.29942708e-03 -7.17645464e-03
      -4.25166124e-03 -3.25143081e-03 1.98129788e-02 9.07577481e-03
      1.19743440e-02 -1.64242908e-02 -1.05612678e-02 -9.63590760e-03
      -6.75340183e-03 -3.14427097e-03 6.23268960e-03 9.62599460e-03
      6.38556806e-03 1.11213289e-02 -1.53975356e-02 -1.65107436e-02
      -1.10430634e-02 -4.39649634e-03 -8.20936635e-03 -6.14550943e-03
      2.94825947e-03 1.40415225e-02 1.15059437e-02 -1.30998939e-02
      -1.75537392e-02 -8.03316850e-03 -1.38978316e-02 -3.46047035e-03
      -7.81909563e-03 -2.11156718e-03 9.57320817e-03 4.91925515e-03
      -1.16246911e-02 -1.01207113e-02 -9.96214524e-03 -1.69220299e-03
      3.05398047e-04 1.57792377e-03 1.22507419e-02 1.32944090e-02
      2.17244364e-02 -1.44774502e-03 -9.15912818e-03 -9.42971092e-03
      -1.38873812e-02 -7.63520319e-03 -6.93210494e-03 1.68890953e-02
      -3.28112999e-03 4.12666891e-03 -1.38521930e-02 -1.73019357e-02
      -1.46545628e-02 -1.92703996e-02 -8.01596604e-03 -8.16981308e-03
      -1.37056643e-02 9.35827382e-03 9.16830171e-03 -1.29780760e-02
      2.09312793e-03 -3.04056611e-03 -3.29675293e-03 7.14776944e-03
      3.02368263e-03 3.66891269e-03 6.33268151e-03 5.77556621e-03
      -5.94512559e-03 -1.27439257e-02 -2.09655166e-02 -1.93384774e-02
      -1.67279225e-02 -1.81045458e-02 9.59197234e-04 2.56284308e-02
      1.92986708e-02 -3.67596280e-03 -8.27345822e-04 -1.02051003e-02
      1.20000041e-04 3.44526023e-04 -1.31923717e-03 1.36289671e-02
      -7.29988283e-03 -8.38097278e-03 -1.52926687e-02 -4.26255586e-03
      -8.36378522e-03 -7.52910040e-03 3.57592688e-03 2.93311849e-03
      -8.21190700e-03 -4.83635254e-03 1.00624224e-03 -4.33246698e-03
      -5.32487314e-03 -1.79814789e-02 -5.66258002e-03 -8.07037391e-03
      4.21826448e-03 -7.16810254e-03 1.54740345e-02 2.01916061e-02
      -1.05392775e-02 -9.05771833e-03 -8.35126080e-03 -1.88348209e-03
      3.86368041e-03 7.53262499e-03 5.53197693e-03 2.29503866e-02
      2.77775731e-02 -1.82841753e-03 -2.39920756e-03 -1.98354740e-02
      -1.29506327e-02 -9.94940102e-03 4.45003714e-03 5.62740397e-03
      -1.47902640e-03 6.28980435e-03 -1.39076924e-02 -6.88616280e-03
      -1.48129575e-02 -1.11202085e-02 -1.75381582e-02 8.34951922e-03
      -5.27792750e-03 4.02027369e-03 7.36983307e-03 -2.29699761e-02
      -1.49677983e-02 -2.55310331e-02 -1.24297161e-02 -1.48951020e-02
      5.49891545e-03 5.69730904e-03 1.96632426e-02 2.36370657e-02
      4.32554679e-03 -2.37255197e-04 -1.90406758e-02 -1.46729257e-02
      -2.22856645e-02 -1.65257603e-03 6.18748553e-03 2.08132025e-02
      1.34826545e-02 4.06843843e-04 -7.53226969e-03 -1.87036619e-02
      -1.39676379e-02 -1.75804663e-02 1.74547720e-03 1.51941245e-02
      5.05948626e-03 6.82810787e-03 -1.38636017e-02 -1.33173838e-02
      -2.47328691e-02 -9.55829676e-03 -1.15191946e-02 1.27265914e-04
      1.03381816e-02 -1.47487887e-03 3.63759999e-03 -9.64754540e-03
      -1.56737920e-02 -2.75283400e-02 -2.16387194e-02 -1.71368029e-02
      -3.61672859e-03 9.08231921e-03 1.66039579e-02 1.37347365e-02
      -4.50486643e-03 -7.84294121e-03 -2.50468161e-02 -6.67817052e-03
      -7.54860695e-03 -3.43223772e-04 1.43604521e-02 2.02478152e-02
      1.17078405e-02 -5.62151289e-03 -9.71810892e-03 -2.47454233e-02
      -1.93877108e-02 -1.65387690e-02 -3.76594230e-03 1.76855698e-02
      8.97581747e-04 2.16047070e-03 -1.65811274e-02 -1.60756763e-02
      -3.33646089e-02 -2.29940377e-02 -1.13072181e-02 -5.08038094e-03
      1.88066950e-03 1.62458001e-03 1.68901496e-02 -7.78724207e-03
      -5.95283322e-03 -2.66063586e-02 -8.67414474e-03 5.23428852e-03
      3.03692278e-03 -8.17361695e-04 8.49016104e-03 8.57755262e-03
      -9.97699611e-03 -1.09740039e-02 -3.02868094e-02 -1.91994440e-02
      -8.61915201e-03 -3.64115578e-03 1.07659968e-02 1.26716048e-02
      1.84937920e-02 -1.25749593e-05 -4.20472026e-03 -2.18931865e-02
      -4.52442048e-03 9.85140819e-03 1.64781213e-02 1.66092236e-02
      -4.40112315e-03 1.18952179e-02 -4.04374115e-03 -1.08762477e-02
      -2.34751552e-02 -1.11779477e-02 -1.27963943e-03 4.12214408e-03
      -5.25111565e-03 -3.29945376e-03 6.37860876e-03 -5.90201188e-03
      -6.58246083e-03 -2.40771044e-02 -2.18062624e-02 -1.26008522e-02
      -5.09552890e-03 -1.43612828e-02 2.25764252e-02 1.93975829e-02
      4.92911960e-04 -1.02653215e-02 -2.70881336e-02 -4.94229840e-03
      5.45911677e-03 1.63688324e-02 1.71132647e-02 2.02188604e-02
      1.81062873e-02 5.92665980e-03 -3.52781755e-03 -2.91930810e-02
      -9.93726775e-03 -1.58277492e-03 1.32605378e-02 1.27924718e-02
      -9.28248977e-04 2.19529727e-03 -6.26278855e-03 -4.66433726e-03
      -1.86150353e-02 -1.50376055e-02 -1.11845136e-02 -2.86393869e-03
      -6.03334804e-04 -2.06935126e-03 1.02435099e-02 -4.66548232e-03
      -7.20006227e-03 -2.72383448e-02 -1.21353213e-02 -1.20089520e-02
      4.59723314e-03 6.65734429e-03 1.66772045e-02 3.09116114e-02
      3.06195393e-03 1.51198974e-03 -1.97613481e-02 -5.23955468e-03
      -1.19468634e-04 8.75677262e-03 1.27679901e-02 4.46361490e-03
      1.54613014e-02 -5.47328638e-03 3.02559952e-03 -1.81263946e-02
      -1.20621547e-02 -1.45620098e-02 -7.19168037e-03 -1.45980215e-03</_></support_vectors>
  <uncompressed_sv_total>51</uncompressed_sv_total>
  <uncompressed_support_vectors>
    <_>
      1.01788752e-01 2.25029606e-02 1.74652487e-02 1.45738330e-02
      6.65733963e-03 3.13250050e-02 2.71910459e-01 2.71910459e-01
      2.16587350e-01 8.43186080e-02 1.56177143e-02 1.70181021e-02
      1.02085369e-02 3.53379152e-03 3.38625275e-02 2.17164487e-01
      2.71910459e-01 2.05518693e-01 1.54764667e-01 5.21287471e-02
      1.36288051e-02 1.73876714e-02 5.55823483e-02 2.54418671e-01
      2.71910459e-01 2.71910459e-01 2.71910459e-01 1.83220565e-01
      6.40793443e-02 1.91263501e-02 1.87738352e-02 2.58503109e-02
      2.00503036e-01 2.71910459e-01 2.71910459e-01 2.71910459e-01
      5.79684973e-02 2.51478814e-02 2.52278801e-02 1.36305783e-02
      2.18997840e-02 3.95322107e-02 1.40320197e-01 2.63125062e-01
      2.08813787e-01 6.92342222e-02 3.89544256e-02 2.60221288e-02
      4.60763909e-02 5.36765531e-02 6.76703304e-02 9.86872017e-02
      1.66923583e-01 1.80736586e-01 2.00487748e-01 4.06924710e-02
      1.99680366e-02 2.63952333e-02 3.34030613e-02 1.71779752e-01
      3.25850308e-01 3.25850308e-01 3.25850308e-01 2.23331600e-01
      1.10678468e-02 2.07492560e-02 2.83491742e-02 3.64406705e-02
      8.55349749e-02 3.25850308e-01 3.25850308e-01 3.25850308e-01
      1.20426863e-01 6.11903183e-02 4.35474589e-02 8.00132677e-02
      6.99321404e-02 6.60023689e-02 1.24509513e-01 1.20081484e-01
      1.98212549e-01 1.38000116e-01 7.92978927e-02 7.41817206e-02
      8.77054110e-02 6.41494095e-02 1.00903518e-01 2.84920484e-01
      2.84920484e-01 2.24601924e-01 2.66980350e-01 3.30311954e-02
      2.29765233e-02 3.41228098e-02 2.30171252e-02 4.50183824e-02
      2.84920484e-01 2.84920484e-01 2.84920484e-01 2.08596930e-01
      7.14671090e-02 5.68910949e-02 6.59712330e-02 3.74634117e-02
      7.21930042e-02 2.84920484e-01 2.84920484e-01 2.84920484e-01
      8.31696168e-02 7.24423081e-02 3.75601202e-02 4.48261462e-02
      5.26897945e-02 1.03873320e-01 3.06414694e-01 3.06414694e-01
      1.29374027e-01 9.71421972e-02 8.12288970e-02 3.29488926e-02
      1.17981937e-02 4.44205403e-02 1.93796292e-01 3.06414694e-01
      3.06414694e-01 2.54173934e-01 6.68722540e-02 6.79147393e-02
      4.82127592e-02 5.09784594e-02 5.75365573e-02 6.81897253e-02
      2.06295624e-01 2.68612772e-01 1.30279005e-01 8.38073567e-02
      7.76117817e-02 3.86850722e-02 2.10317839e-02 9.37811136e-02
      1.41869217e-01 3.06414694e-01 3.06414694e-01 2.62214601e-01
      7.47993439e-02 6.24571703e-02 1.52040925e-02 6.60705892e-03
      2.77236532e-02 1.10008866e-01 2.99026430e-01 2.99026430e-01
      1.53571084e-01 5.56024536e-02 4.38132621e-02 7.17481785e-03
      6.71889680e-03 2.27265824e-02 6.78089857e-02 2.56779879e-01
      2.39206851e-01 1.05862543e-01 8.83181468e-02 6.39009774e-02
      8.03708006e-03 7.86830857e-03 5.21588810e-02 1.23004660e-01
      2.99026430e-01 2.99026430e-01 2.95509338e-01 1.32774204e-01
      7.63171986e-02 4.72165551e-03 1.12136770e-02 3.48922759e-02
      1.95649758e-01 2.99026430e-01 2.99026430e-01 2.99026430e-01
      3.59606706e-02 3.68061438e-02 1.37761403e-02 1.70647334e-02
      3.27296369e-02 5.19582815e-02 1.41854957e-01 1.03919968e-01
      7.59834945e-02 3.76707464e-02 5.84138744e-02 5.67776375e-02
      3.87863889e-02 4.71264310e-02 3.72286290e-02 4.59772833e-02
      4.29204889e-02 4.98075038e-02 1.42167777e-01 1.00615032e-01
      2.06645820e-02 3.73920500e-02 3.32680829e-02 2.28919744e-01
      3.04881334e-01 3.04881334e-01 3.04881334e-01 2.72928178e-01
      2.58684576e-01 3.04881334e-01 1.45831019e-01 1.21561371e-01
      1.41294271e-01 3.04881334e-01 3.04881334e-01 3.04881334e-01
      4.53303047e-02 1.26955941e-01 2.31059894e-01 4.55878451e-02
      3.10882963e-02 1.15621248e-02 1.62788108e-02 1.31284408e-02
      2.41570957e-02 8.55684206e-02 3.67676109e-01 3.67676109e-01
      7.94065818e-02 6.20147325e-02 1.73248257e-02 9.46825836e-03
      1.11197894e-02 2.98778024e-02 1.35701582e-01 3.67676109e-01
      3.67676109e-01 1.15548082e-01 7.06315115e-02 2.94097662e-02
      7.03108832e-02 7.51103535e-02 1.34977445e-01 8.67052078e-02
      3.67676109e-01 3.67676109e-01 1.01810187e-01 3.51957120e-02
      1.79167073e-02 4.00243104e-02 3.58674750e-02 4.26240228e-02
      1.02366753e-01 3.82740438e-01 3.82740438e-01 1.88869879e-01
      2.06521675e-01 5.87780923e-02 3.24606337e-02 2.09982526e-02
      1.04966842e-01 5.82556538e-02 1.41560212e-01 2.29221642e-01
      9.91749689e-02 1.54072776e-01 3.94460335e-02 3.20275836e-02
      2.08497010e-02 8.20715204e-02 1.14804037e-01 3.82740438e-01
      3.82740438e-01 1.28238395e-01 9.80007201e-02 4.81960475e-02
      9.52963158e-02 9.00732800e-02 3.89387272e-02 1.18212454e-01
      1.26385912e-01 1.73642963e-01 6.60403445e-02 1.34613529e-01
      1.18631996e-01 9.91381556e-02 9.91880819e-02 9.77725908e-02
      6.22176230e-02 5.98085746e-02 5.11773303e-02 1.37312887e-02
      3.13733965e-02 2.29657833e-02 2.74092816e-02 6.30369037e-02
      1.05719984e-01 1.03832573e-01 8.28706548e-02 7.35447258e-02
      2.23533679e-02 2.05842461e-02 1.35712167e-02 3.58272046e-02
      9.87350121e-02 1.38051793e-01 2.43120790e-01 1.59715444e-01
      9.56699550e-02 4.47418094e-02 1.17021233e-01 1.92764729e-01
      2.83469230e-01 3.06877196e-01 3.06877196e-01 3.06877196e-01
      2.79350996e-01 1.79272518e-01 8.29325989e-02 2.37647742e-02
      7.32853413e-02 3.06877196e-01 3.06877196e-01 3.06877196e-01
      1.08753219e-01 6.13555275e-02 5.20214140e-02 3.78719121e-02
      2.38219202e-02 8.62043351e-03 1.98033135e-02 5.78760765e-02
      9.82354507e-02 1.10424243e-01 5.44588901e-02 1.91494711e-02
      3.83034982e-02 3.63468044e-02 1.03162993e-02 2.58157291e-02
      8.17079023e-02 1.08470134e-01 3.03225160e-01 2.90090054e-01
      1.14161722e-01 1.04223996e-01 3.90032120e-02 2.96321250e-02
      1.93682581e-01 3.03225160e-01 3.03225160e-01 3.03225160e-01
      2.44830877e-01 2.98819058e-02 1.23980284e-01 1.47934109e-01
      1.89751625e-01 3.03225160e-01 3.03225160e-01 3.03225160e-01
      1.48062348e-01 8.59418213e-02 2.99373865e-02 5.02937958e-02
      9.92801934e-02 2.24587079e-02 9.14386362e-02 1.49033040e-01
      1.54733926e-01 9.26582217e-02 8.86472836e-02 4.13733944e-02
      2.09385455e-02 9.03979316e-02 3.82730402e-02 1.09401800e-01
      1.26818746e-01 9.05926675e-02 2.92091280e-01 1.83434725e-01
      1.62726250e-02 1.33623421e-01 3.07745159e-01 3.07745159e-01
      3.07745159e-01 3.07745159e-01 3.07745159e-01 7.26987273e-02
      5.04637733e-02 3.38049307e-02 3.24434787e-02 3.07745159e-01
      1.23030335e-01 2.15524331e-01 1.98393881e-01 1.36100903e-01
      2.78293967e-01 2.63947994e-01 1.34190261e-01 5.65736145e-02
      1.27287626e-01 1.41669095e-01 1.89455956e-01 1.80653781e-01
      1.71785533e-01 2.78293967e-01 1.56022370e-01 1.02558747e-01
      5.24585024e-02 5.93163408e-02 8.78593326e-02 6.38471916e-02
      3.19436416e-02 2.78293967e-01 2.37245142e-01 1.94308788e-01
      1.45752460e-01 1.61330570e-02 2.78293967e-01 1.39499292e-01
      1.43913493e-01 7.82865807e-02 1.91771284e-01 2.78293967e-01
      1.41076565e-01 9.27065089e-02 9.58924554e-03 7.84132332e-02
      9.78968069e-02 9.93475392e-02 2.41923574e-02 2.78293967e-01
      2.73496419e-01 1.58510998e-01 8.00839290e-02 5.10255285e-02
      6.77372292e-02 3.69015671e-02 2.29102802e-02 4.79587205e-02
      2.73496419e-01 2.73496419e-01 2.73496419e-01 2.73496419e-01
      9.36752856e-02 1.56975389e-01 4.38147262e-02 3.31349671e-02
      8.65669847e-02 2.06338629e-01 2.73496419e-01 1.85940906e-01
      1.33754879e-01 4.92627062e-02 3.50855365e-02 5.02876798e-03
      1.60067342e-02 3.90106998e-02 2.73496419e-01 2.40889579e-01
      2.73496419e-01 2.73496419e-01 1.03525452e-01 1.14678882e-01
      3.77895236e-02 6.92188516e-02 1.13403745e-01 1.89053923e-01
      2.54478782e-01 2.54478782e-01 2.54478782e-01 5.41752689e-02
      2.00710714e-01 8.47562179e-02 3.50489132e-02 7.92246014e-02
      1.39018670e-01 1.41308904e-01 1.14264756e-01 1.20224319e-01
      3.88394222e-02 2.11983591e-01 1.56722695e-01 3.16032618e-02
      3.81458588e-02 9.89312008e-02 1.61093637e-01 1.85403258e-01
      1.85615733e-01 1.96582004e-01 2.16603070e-01 1.87124640e-01
      1.65884539e-01 1.31701291e-01 1.35607138e-01 1.36056110e-01
      1.37429446e-01 2.34107405e-01 2.54478782e-01 2.54478782e-01
      2.54478782e-01 1.06885426e-01 4.81892601e-02 1.27981633e-01
      1.33792505e-01 2.18492765e-02 8.80984664e-02 5.60565367e-02
      2.12250516e-01 9.88116190e-02 1.24183722e-01 4.80136909e-02
      9.09062997e-02 2.44812131e-01 1.81704074e-01 2.44812131e-01
      1.64817154e-01 2.44812131e-01 1.97598547e-01 1.97797209e-01
      1.10060193e-01 1.95718154e-01 1.69026271e-01 7.31432512e-02
      1.46308303e-01 1.19825281e-01 2.44812131e-01 1.76185817e-01
      8.42621624e-02 4.62945849e-02 1.36231557e-01 2.44812131e-01
      2.44812131e-01 1.87621519e-01 1.32306263e-01 2.44812131e-01
      1.42414510e-01 1.26978010e-01 1.15879528e-01 2.19315693e-01
      9.06981230e-02 4.53322306e-02 9.19612125e-03 2.03053895e-02
      4.30432819e-02 2.26191312e-01 2.67233431e-01 2.67233431e-01
      1.55015633e-01 1.28680766e-01 2.95274183e-02 5.81504963e-03
      2.09622849e-02 4.33511026e-02 2.67233431e-01 2.67233431e-01
      2.67233431e-01 1.98243856e-01 1.50741681e-01 6.11258671e-02
      2.30324510e-02 1.60377435e-02 8.70085880e-03 5.91242537e-02
      2.67233431e-01 2.67233431e-01 2.22545430e-01 1.88136905e-01
      3.07664406e-02 1.44614410e-02 1.19077060e-02 2.77666803e-02
      1.35928601e-01 2.67233431e-01 2.67233431e-01 2.67233431e-01
      1.23952255e-01 2.90460568e-02 1.88564677e-02 2.32470613e-02
      5.80686815e-02 1.95259854e-01 2.53784209e-01 2.63469607e-01
      2.16916636e-01 1.53685704e-01 5.09227067e-02 5.98938502e-02
      1.42611554e-02 4.76869419e-02 7.31393397e-02 2.63469607e-01
      2.63469607e-01 2.63469607e-01 1.44040361e-01 4.85000536e-02
      2.04411391e-02 1.33540872e-02 6.12691045e-02 1.28540725e-01
      2.63469607e-01 2.63469607e-01 2.63469607e-01 1.23897575e-01
      1.24588415e-01 8.51975605e-02 2.74921358e-02 7.14594498e-02
      8.68925452e-02 2.63469607e-01 2.63469607e-01 2.63469607e-01
      1.44662008e-01 4.46271002e-02 3.71915139e-02 1.35270609e-02
      1.12959417e-02 1.73109733e-02 2.67144501e-01 2.67144501e-01
      2.67144501e-01 1.60637140e-01 5.05651049e-02 2.34694742e-02
      1.66409984e-02 1.35388672e-02 2.56005619e-02 2.67144501e-01
      2.67144501e-01 2.59098828e-01 1.28971115e-01 1.08090550e-01
      7.97802135e-02 5.55911437e-02 3.33344042e-02 2.96840426e-02
      2.18379349e-01 2.67144501e-01 2.67144501e-01 2.16652334e-01
      1.01994656e-01 5.14046177e-02 7.78095797e-02 8.59859437e-02
      2.66628452e-02 2.67144501e-01 2.67144501e-01 2.67144501e-01
      9.90044475e-02 3.59950252e-02 2.05564275e-02 1.49201378e-02
      2.01507360e-02 2.90324446e-02 2.66920596e-01 2.87609786e-01
      1.83663830e-01 8.23886171e-02 2.63305418e-02 1.74338017e-02
      1.14250388e-02 4.42376137e-02 4.45890501e-02 2.56329358e-01
      2.87609786e-01 2.27633253e-01 1.72074407e-01 4.83103432e-02
      1.44339809e-02 5.35081774e-02 1.20326497e-01 5.27543724e-02
      2.87609786e-01 2.87609786e-01 2.82517225e-01 1.52458131e-01
      1.56963747e-02 3.80435912e-03 1.56874228e-02 6.58659115e-02
      1.02742530e-01 2.87609786e-01 2.87609786e-01 2.87609786e-01
      8.63859728e-02 2.65484378e-02 1.22657595e-02 1.42818782e-02
      3.89214903e-02 6.32182360e-02 2.04858795e-01 2.38605306e-01
      2.58556902e-01 1.23123348e-01 5.08090109e-02 5.54544851e-02
      3.15899029e-02 4.26543616e-02 1.44824758e-01 2.59618998e-01
      2.59618998e-01 2.59618998e-01 1.24322362e-01 3.13628316e-02
      3.01917661e-02 3.58408205e-02 1.53603787e-02 7.10112005e-02
      2.59618998e-01 2.59618998e-01 2.59618998e-01 1.33110464e-01
      2.11558685e-01 2.22654834e-01 1.21491492e-01 8.52350965e-02
      9.16782767e-02 2.59618998e-01 2.59618998e-01 2.59618998e-01
      8.56987238e-02 7.68316016e-02 9.14941058e-02 4.88793999e-02
      4.52558808e-02 1.21969208e-01 2.20565304e-01 2.20565304e-01
      2.20565304e-01 1.90536037e-01 1.58622563e-01 1.75338119e-01
      9.15461779e-02 1.30369201e-01 1.26782730e-01 2.20565304e-01
      2.20565304e-01 2.20565304e-01 1.00081339e-01 2.20565304e-01
      2.20565304e-01 1.17953882e-01 1.29616320e-01 6.69464692e-02
      1.59086615e-01 1.54216841e-01 2.13086948e-01 1.85714304e-01
      2.11485341e-01 2.20565304e-01 8.93860459e-02 1.33563176e-01
      7.84915909e-02 1.92742661e-01 2.20565304e-01 2.20565304e-01
      1.42074645e-01 2.19050497e-01 2.71538109e-01 7.45193660e-02
      1.18834548e-01 7.42598549e-02 1.77465871e-01 2.21837223e-01
      2.10347518e-01 6.82221130e-02 1.66838750e-01 2.22382560e-01
      3.97187360e-02 3.48060429e-02 3.86352986e-02 1.41333103e-01
      2.71538109e-01 1.68534249e-01 1.75313026e-01 8.50731283e-02
      4.69592623e-02 3.85122076e-02 9.55250114e-02 7.08289295e-02
      2.23969832e-01 2.71538109e-01 2.71538109e-01 1.26612619e-01
      2.78913509e-02 9.76742990e-03 1.65645629e-02 4.21760380e-02
      5.76220341e-02 2.71538109e-01 2.71538109e-01 2.71538109e-01
      1.00853749e-01 1.11962177e-01 1.02637261e-01 3.31648402e-02
      5.11898659e-02 5.15275560e-02 1.41737670e-01 2.70365059e-01
      1.50648251e-01 9.57118496e-02 8.41589868e-02 4.70426679e-02
      1.91082675e-02 6.90011382e-02 6.60166591e-02 6.21672757e-02
      9.90574583e-02 9.31407511e-02 1.75683737e-01 4.41266932e-02
      2.78562829e-02 8.30153283e-03 4.40778099e-02 2.02234983e-01
      3.43996614e-01 3.43996614e-01 3.43996614e-01 1.85781255e-01
      9.01817381e-02 7.84577653e-02 1.38897784e-02 5.64921387e-02
      1.61307514e-01 2.10705742e-01 3.43996614e-01 3.43996614e-01
      1.63739905e-01 1.24627188e-01 4.28062454e-02 2.18997002e-02
      4.95459400e-02 7.56828785e-02 1.68543801e-01 1.82798967e-01
      1.73388302e-01 2.89405674e-01 1.59575388e-01 5.29312864e-02
      4.58179154e-02 1.91726051e-02 5.73368780e-02 2.48166725e-01
      2.89405674e-01 2.89405674e-01 1.87254682e-01 1.02228589e-01
      6.53831139e-02 1.25231277e-02 2.20087487e-02 3.71223688e-02
      1.92681819e-01 2.89405674e-01 2.89405674e-01 1.64884046e-01
      9.13205221e-02 4.33047526e-02 1.84910987e-02 2.70867031e-02
      6.27200529e-02 1.97842821e-01 2.89405674e-01 2.89405674e-01
      2.55269140e-01 1.56798944e-01 4.09351364e-02 6.32038713e-02
      4.18324918e-02 4.81334887e-02 1.16545044e-01 1.67420149e-01
      2.55269140e-01 1.43854231e-01 1.54682323e-01 2.39395499e-02
      1.11317329e-01 1.64759278e-01 2.46160507e-01 2.55269140e-01
      2.55269140e-01 1.67865947e-01 1.21881418e-01 1.27426028e-01
      6.48595318e-02 5.69844358e-02 6.28909916e-02 7.75896162e-02
      1.05959527e-01 1.49813920e-01 2.14080185e-01 1.35501340e-01
      1.79725990e-01 9.74439457e-02 1.59836367e-01 1.86438143e-01
      2.55269140e-01 2.55269140e-01 2.55269140e-01 2.08288923e-01
      4.11520898e-02 6.91587031e-02 1.50975166e-02 3.49422880e-02
      1.24750651e-01 2.24513650e-01 3.04564804e-01 3.04564804e-01
      8.11151341e-02 2.86325105e-02 3.29534896e-02 1.92824826e-02
      6.73047639e-03 9.27700177e-02 5.77698238e-02 1.14710338e-01
      1.29677951e-01 6.08103983e-02 7.48745203e-02 9.08627436e-02
      4.61679697e-02 8.18009749e-02 1.19443037e-01 2.88343310e-01
      3.04564804e-01 3.04564804e-01 2.19598025e-01 1.16345443e-01
      6.56806305e-02 2.85618361e-02 3.31434868e-02 1.23787746e-01
      1.81160957e-01 3.04564804e-01 3.04564804e-01 2.75247037e-01
      5.32884635e-02 3.28779817e-02 3.14889513e-02 1.41129447e-02
      1.07335269e-01 3.70902568e-02 3.67362387e-02 6.79383650e-02
      7.46297240e-02 7.22247437e-02 2.46730149e-02 2.09535006e-02
      7.19032576e-03 2.82876585e-02 1.68317985e-02 2.54951827e-02
      6.10579364e-02 1.02069154e-01 2.42900014e-01 9.90938246e-02
      5.63349836e-02 6.20743297e-02 1.70176640e-01 1.44859299e-01
      3.69817704e-01 3.69817704e-01 3.69817704e-01 1.09784059e-01
      9.80933458e-02 7.60014802e-02 3.14304046e-02 5.04020676e-02
      9.34203714e-02 3.08615506e-01 3.69817704e-01 3.69817704e-01
      1.34265378e-01 4.90017682e-02 3.70171070e-02 1.29363621e-02
      1.94450226e-02 5.61928749e-03 3.95887531e-02 9.11287591e-02
      2.01293215e-01 1.05108000e-01 7.35796168e-02 6.98051751e-02
      2.24873126e-02 1.32949566e-02 1.18052382e-02 4.39008027e-02
      9.68232602e-02 1.40960827e-01 2.30357766e-01 1.05992168e-01
      9.19170156e-02 2.80054510e-02 3.79465260e-02 1.40403226e-01
      3.57004970e-01 3.57004970e-01 3.57004970e-01 3.57004970e-01
      5.38835488e-02 4.97125760e-02 2.67631449e-02 9.72598512e-03
      7.69507289e-02 1.72281817e-01 3.10810030e-01 3.57004970e-01
      1.14145786e-01 5.87793253e-02 8.44822451e-02 1.19299605e-01
      1.13357589e-01 6.70355633e-02 1.26748905e-01 9.57706422e-02
      1.24427922e-01 1.11008689e-01 1.28427044e-01 1.79456264e-01
      2.21951202e-01 2.54636437e-01 1.41501397e-01 1.00988269e-01
      3.76991332e-02 1.37938693e-01 2.54636437e-01 6.48764521e-02
      8.52404535e-02 1.96404442e-01 1.40617281e-01 8.77888948e-02
      1.44481078e-01 1.19787142e-01 2.54636437e-01 2.54636437e-01
      2.26953432e-01 2.54636437e-01 2.54636437e-01 2.54636437e-01
      1.64570674e-01 1.53007478e-01 8.43287036e-02 2.54636437e-01
      1.49022833e-01 1.68165848e-01 1.13683693e-01 9.46917087e-02
      2.47270241e-01 7.04912618e-02 4.33411747e-02 3.12609859e-02
      2.01376006e-01 1.96785718e-01 1.94364026e-01 1.15513705e-01
      5.63194081e-02 1.71931922e-01 1.10165283e-01 1.09410353e-01
      9.07284990e-02 1.86836451e-01 2.50110686e-01 2.49216303e-01
      1.92105800e-01 1.44540265e-01 1.34703904e-01 1.06982373e-01
      9.21070874e-02 9.88141522e-02 2.50110686e-01 2.50110686e-01
      2.17291489e-01 1.51348501e-01 4.05915789e-02 1.52947396e-01
      2.42202491e-01 1.73292398e-01 1.54785469e-01 2.50110686e-01
      2.04976231e-01 6.07695542e-02 3.76584493e-02 1.47021348e-02
      1.26704080e-02 1.21052582e-02 1.10473275e-01 2.47452825e-01
      2.92139620e-01 2.49745458e-01 3.98582593e-02 2.78501175e-02
      2.31115241e-03 4.97577759e-03 1.23513443e-02 1.99319676e-01
      2.92139620e-01 2.92139620e-01 2.92139620e-01 8.56730938e-02
      5.32005578e-02 6.30709901e-02 5.65845631e-02 3.23450118e-02
      3.94799374e-02 2.38581166e-01 2.92139620e-01 2.92139620e-01
      8.17379951e-02 4.47115004e-02 2.93551404e-02 3.18221152e-02
      6.38855249e-03 4.29221727e-02 2.90884018e-01 2.92139620e-01
      2.30774641e-01 3.29536982e-02 1.68568864e-02 3.45688662e-03
      1.15359044e-02 4.63916510e-02 2.02831626e-01 2.63953626e-01
      2.63953626e-01 1.79458246e-01 1.06382795e-01 5.49091510e-02
      2.24568676e-02 1.42393196e-02 7.09984377e-02 2.38615632e-01
      2.63953626e-01 2.63953626e-01 2.63953626e-01 4.69969511e-02
      5.86111099e-02 2.89511662e-02 1.95236243e-02 5.84456101e-02
      7.66175538e-02 2.63953626e-01 2.63953626e-01 2.63953626e-01
      1.56281948e-01 1.13565587e-01 6.75490722e-02 1.60267688e-02
      1.00635022e-01 1.57928988e-01 2.63953626e-01 2.63953626e-01
      1.49583966e-01 1.05968423e-01 6.23694248e-02 5.16460873e-02
      1.18029248e-02 3.88536602e-02 1.49386570e-01 2.75584906e-01
      2.75584906e-01 1.80818170e-01 6.16436787e-02 4.11299206e-02
      7.06997141e-02 6.70046508e-02 2.86970045e-02 2.20723674e-01
      2.75584906e-01 2.75584906e-01 1.73906937e-01 1.57441497e-01
      1.09644473e-01 9.35894996e-02 1.97681412e-02 6.89432770e-02
      1.67583838e-01 2.75584906e-01 2.75584906e-01 1.59324691e-01
      6.06498718e-02 7.56588727e-02 6.40467927e-02 1.99180786e-02
      6.36524633e-02 2.75584906e-01 2.75584906e-01 2.75584906e-01
      7.29961619e-02 1.53360637e-02 9.99791641e-03 3.98378335e-02
      1.03045970e-01 6.35543913e-02 2.48585209e-01 2.66740650e-01
      2.66740650e-01 8.01778957e-02 9.60646663e-03 5.75804617e-03
      2.49637198e-02 9.31141973e-02 1.77628934e-01 2.66740650e-01
      2.66740650e-01 2.39361584e-01 9.47804600e-02 2.49801595e-02
      2.33110264e-02 2.00881492e-02 4.10062522e-02 6.64769188e-02
      2.66740650e-01 2.66740650e-01 2.66740650e-01 1.64755240e-01
      4.55545112e-02 3.33198011e-02 5.58036938e-02 1.73801035e-01
      1.52973384e-01 2.54709154e-01 2.66740650e-01 2.66740650e-01
      1.23194486e-01 5.09625822e-02 4.05875519e-02 4.58504222e-02
      4.33536619e-02 1.28701419e-01 2.60016203e-01 2.60016203e-01
      2.21868113e-01 1.76440850e-01 1.57932490e-01 1.23954646e-01
      9.52898040e-02 9.70743224e-02 9.44780558e-02 2.54073918e-01
      2.60016203e-01 2.47334868e-01 1.54945418e-01 6.31943643e-02
      6.67925328e-02 6.89017326e-02 1.25398383e-01 1.40032887e-01
      1.87836841e-01 2.60016203e-01 2.36186892e-01 1.48249477e-01
      6.67308345e-02 6.96655959e-02 4.13465202e-02 5.90829588e-02
      1.01280101e-01 2.60016203e-01 2.60016203e-01 2.60016203e-01
      9.37067866e-02 1.53762206e-01 1.66605666e-01 7.90448040e-02
      1.42112106e-01 7.53018335e-02 2.51273394e-01 2.64607042e-01
      1.78251252e-01 1.01014666e-01 1.15551546e-01 1.22400582e-01
      4.99601327e-02 6.78103268e-02 5.15252203e-02 1.88878641e-01
      2.64607042e-01 2.53638983e-01 1.18503086e-01 5.22180684e-02
      4.16315459e-02 1.90866236e-02 4.98089753e-02 9.69361290e-02
      2.64607042e-01 2.64607042e-01 2.64607042e-01 1.68092459e-01
      1.19283400e-01 4.68017384e-02 3.02695204e-02 6.71685040e-02
      1.44470483e-01 2.64607042e-01 2.64607042e-01 2.64607042e-01
      1.41561717e-01 6.09576553e-02 3.02392971e-02 2.29692124e-02
      3.00204717e-02 3.43674347e-02 1.22539051e-01 2.93587893e-01
      2.93587893e-01 1.58371300e-01 5.26857190e-02 2.52616443e-02
      1.86800193e-02 1.94630120e-02 4.04558592e-02 1.43751919e-01
      2.93587893e-01 2.93587893e-01 1.82427317e-01 1.18998855e-01
      3.23277004e-02 2.51869764e-02 5.90393022e-02 7.77307451e-02
      1.79815784e-01 2.93587893e-01 2.93587893e-01 2.51377523e-01
      1.51854008e-01 4.00168672e-02 3.23600583e-02 4.72337008e-02
      5.73647581e-02 1.68205991e-01 2.93587893e-01 2.93587893e-01
      1.06456012e-01 7.21639320e-02 4.86075841e-02 1.82648301e-02
      2.41339654e-02 9.81130376e-02 1.60167485e-01 2.67938286e-01
      2.67938286e-01 1.29821077e-01 8.84317309e-02 6.41568899e-02
      2.36122366e-02 6.16649985e-02 1.30282059e-01 1.88811556e-01
      2.67938286e-01 2.67938286e-01 2.18872681e-01 1.77488163e-01
      5.75782694e-02 4.76691313e-02 3.92104462e-02 4.36941534e-02
      1.50659010e-01 2.67938286e-01 2.67938286e-01 1.63959876e-01
      1.37843698e-01 9.40250382e-02 6.13470785e-02 1.52869597e-01
      1.51948914e-01 2.56978363e-01 2.67938286e-01 2.67938286e-01
      1.16452210e-01 4.20733616e-02 3.76061983e-02 1.48395645e-02
      3.26305032e-02 5.53969182e-02 1.95731521e-01 2.72894174e-01
      2.72894174e-01 1.23125762e-01 2.83554457e-02 4.41739149e-02
      4.13794350e-03 9.72680468e-03 3.99160944e-02 1.78790301e-01
      2.72894174e-01 2.72894174e-01 1.46556169e-01 7.14920014e-02
      7.32930228e-02 7.30613619e-02 1.70136243e-01 1.28218919e-01
      2.53273308e-01 2.72894174e-01 2.72894174e-01 1.62473947e-01
      6.38445988e-02 1.12229168e-01 5.94319031e-02 7.68251047e-02
      1.29222259e-01 2.72894174e-01 2.72894174e-01 2.72894174e-01
      1.34948328e-01 8.45591649e-02 6.01527505e-02 4.04096171e-02
      2.75840629e-02 4.31999676e-02 1.54943347e-01 2.16698781e-01
      2.69662708e-01 1.22246437e-01 1.41722053e-01 1.00204729e-01
      1.26113445e-01 6.21886402e-02 1.06437132e-01 2.27357686e-01
      2.50923544e-01 2.69662708e-01 1.29477844e-01 7.25306123e-02
      8.34899619e-02 5.74679561e-02 3.42691280e-02 1.19603284e-01
      2.69662708e-01 2.69662708e-01 2.56606609e-01 1.07908510e-01
      1.08235568e-01 1.10388063e-01 1.02500662e-01 4.10970189e-02
      1.78560361e-01 2.69662708e-01 2.69662708e-01 2.69662708e-01
      1.08514763e-01 6.03523366e-02 4.47174273e-02 6.80752620e-02
      5.12064286e-02 8.38368535e-02 1.66658744e-01 2.74668813e-01
      2.74668813e-01 1.27453491e-01 3.31432335e-02 3.09528392e-02
      4.77664918e-02 7.76391551e-02 8.19309652e-02 2.02182800e-01
      2.74668813e-01 2.74668813e-01 1.90616116e-01 1.13643996e-01
      9.34989229e-02 8.84742513e-02 4.73778434e-02 1.06969729e-01
      1.81266278e-01 2.74668813e-01 2.74668813e-01 2.74668813e-01
      7.84391686e-02 7.42129758e-02 1.06643669e-01 8.22276175e-02
      8.23154077e-02 1.88827589e-01 2.74668813e-01 2.74668813e-01
      7.97071010e-02 2.35449784e-02 2.83246282e-02 3.32669690e-02
      4.51430827e-02 4.20060270e-02 2.04013705e-01 2.77867049e-01
      2.47450680e-01 6.98782578e-02 4.01221365e-02 3.16059552e-02
      1.94817614e-02 4.46565561e-02 5.70538715e-02 1.51665479e-01
      2.77867049e-01 2.77867049e-01 1.26299500e-01 4.79770005e-02
      4.62144241e-02 5.53507842e-02 7.43521452e-02 8.58680904e-02
      2.77082413e-01 2.77867049e-01 2.77867049e-01 1.38321787e-01
      1.03971593e-01 4.96097431e-02 6.06020167e-02 2.11862713e-01
      2.50363499e-01 2.19962999e-01 2.77867049e-01 2.77867049e-01
      7.34572634e-02 3.76811773e-02 1.86108779e-02 5.60631789e-03
      3.32977511e-02 5.90121709e-02 6.34236038e-02 3.05023521e-01
      3.05023521e-01 8.47456008e-02 2.72912160e-02 8.50282703e-03
      1.80428033e-03 1.22038890e-02 3.47543210e-02 7.45379925e-02
      2.84873992e-01 3.05023521e-01 1.47078887e-01 1.20790251e-01
      5.62236831e-02 6.25538602e-02 1.73331395e-01 2.22318098e-01
      1.10663317e-01 3.05023521e-01 3.05023521e-01 1.13848962e-01
      9.32866186e-02 3.88262682e-02 3.67485359e-02 5.19484207e-02
      1.07570276e-01 2.44943365e-01 3.05023521e-01 3.05023521e-01
      9.03113633e-02 2.08984204e-02 1.24499407e-02 1.81331392e-02
      1.86640453e-02 1.31304991e-02 5.15544526e-02 2.05777004e-01
      2.17009097e-01 1.20322950e-01 2.54672244e-02 2.82689147e-02
      2.92299446e-02 3.42215151e-02 1.95458848e-02 1.54971490e-02
      7.76680112e-02 1.98133513e-01 1.56882167e-01 6.85242340e-02
      2.73456015e-02 2.77072731e-02 9.30581391e-02 1.96934134e-01
      3.25804383e-01 3.25804383e-01 3.25804383e-01 3.25804383e-01
      9.57726315e-02 1.00757509e-01 5.80878705e-02 1.53681353e-01
      1.68389410e-01 2.03375161e-01 3.25804383e-01 3.25804383e-01
      1.16431184e-01 2.85338331e-02 2.23084111e-02 1.39131350e-02
      1.28878243e-02 1.34881996e-02 2.52555721e-02 7.38347992e-02
      2.45269388e-01 7.72852525e-02 2.55373660e-02 9.02604032e-03
      2.37200479e-03 7.36245327e-03 2.61436887e-02 4.55406532e-02
      8.30625743e-02 1.77346513e-01 3.55224162e-01 1.55572057e-01
      1.11481600e-01 5.28504848e-02 4.85614836e-02 2.17025969e-02
      7.34279081e-02 3.55224162e-01 3.55224162e-01 1.79969519e-01
      1.30328387e-01 4.64441963e-02 2.54135616e-02 2.16659531e-02
      9.75840166e-02 3.55224162e-01 3.55224162e-01 3.55224162e-01
      2.94225872e-01 7.67273828e-02 2.86725797e-02 4.90140282e-02
      3.55112553e-02 6.49367347e-02 1.11789256e-01 1.90933824e-01
      3.15346688e-01 3.15346688e-01 1.16152726e-01 3.82311158e-02
      4.35164757e-02 4.61215042e-02 1.21310139e-02 5.24954237e-02
      1.78157628e-01 3.15346688e-01 3.15346688e-01 2.92228926e-02
      5.30011952e-03 1.04233166e-02 3.90308793e-03 3.96083444e-02
      1.40663981e-01 2.12440535e-01 3.15346688e-01 3.15346688e-01
      4.27634679e-02 1.34352166e-02 2.02320274e-02 1.10541042e-02
      9.55792423e-03 6.35272190e-02 1.51183888e-01 3.15346688e-01
      3.01747561e-01 7.72891492e-02 5.96762896e-02 4.49833013e-02
      3.20272669e-02 3.82447131e-02 7.70417899e-02 1.78266421e-01
      3.01747561e-01 2.64970541e-01 1.51417777e-01 1.22769833e-01
      6.44010082e-02 3.46121192e-02 7.67576769e-02 1.21458650e-01
      1.68384850e-01 3.01747561e-01 3.01747561e-01 6.71538040e-02
      3.04806102e-02 1.91954020e-02 1.06535638e-02 2.90455725e-02
      6.39196336e-02 1.02012165e-01 3.01747561e-01 3.01747561e-01
      2.47446880e-01 1.54381782e-01 1.98490713e-02 2.65298467e-02
      8.54048431e-02 1.02902345e-01 1.41454667e-01 3.01747561e-01
      1.51610658e-01 1.42965958e-01 1.78928465e-01 6.98600560e-02
      5.58156297e-02 6.28923848e-02 1.34411186e-01 2.02808082e-01
      2.32330993e-01 1.29624426e-01 1.03881337e-01 1.41207486e-01
      7.63526186e-02 8.09184164e-02 1.09873764e-01 2.32330993e-01
      2.32330993e-01 2.32330993e-01 2.32330993e-01 2.32330993e-01
      2.32330993e-01 6.22481070e-02 8.11280906e-02 8.31550807e-02
      6.90032542e-02 1.21215127e-01 2.32330993e-01 2.32330993e-01
      2.26773992e-01 2.32330993e-01 1.24456875e-01 1.35585219e-01
      1.45346597e-01 1.45297214e-01 1.44875661e-01 2.32330993e-01
      1.45076245e-01 7.09901303e-02 5.53592369e-02 7.22492188e-02
      9.83128771e-02 1.06796660e-01 2.05099374e-01 2.35564709e-01
      2.35564709e-01 2.35231504e-01 1.35680035e-01 1.00341253e-01
      8.13250616e-02 1.84220701e-01 9.40074921e-02 1.08800679e-01
      2.35564709e-01 2.35564709e-01 2.35564709e-01 1.45419896e-01
      1.42317057e-01 1.11455657e-01 1.28033787e-01 1.28302589e-01
      1.27156764e-01 1.85298696e-01 2.35564709e-01 2.35564709e-01
      2.35564709e-01 2.35564709e-01 1.27514392e-01 1.16064742e-01
      6.88421205e-02 6.31559044e-02 1.56690687e-01 2.35564709e-01
      1.53000250e-01 1.60158768e-01 1.29133135e-01 5.48964851e-02
      7.80115798e-02 5.74007779e-02 1.13907367e-01 1.44551530e-01
      2.09132656e-01 1.39357209e-01 1.24413297e-01 1.31983519e-01
      4.34334464e-02 3.12085040e-02 4.33905162e-02 2.26011842e-01
      2.63329744e-01 2.63329744e-01 2.63329744e-01 2.63329744e-01
      2.63329744e-01 6.52876869e-02 3.83332223e-02 2.16529649e-02
      8.06198791e-02 7.92023018e-02 1.85926065e-01 2.63329744e-01
      2.63329744e-01 2.63329744e-01 7.15810061e-02 6.66663498e-02
      3.13474610e-02 1.63653776e-01 1.36127695e-01 2.63329744e-01
      1.46740347e-01 8.41703415e-02 7.70352185e-02 2.85341833e-02
      2.02893652e-02 4.95377593e-02 1.87248752e-01 2.50463426e-01
      2.50463426e-01 2.00882182e-01 1.02587946e-01 5.38842902e-02
      5.74539192e-02 5.31354882e-02 1.12775497e-01 1.80297390e-01
      2.24784061e-01 2.50463426e-01 2.50463426e-01 2.50463426e-01
      2.48030007e-01 7.64553398e-02 7.83851296e-02 7.70991445e-02
      1.00493655e-01 1.04946248e-01 2.38668397e-01 2.50463426e-01
      2.50463426e-01 2.39208549e-01 2.10997015e-01 6.08169511e-02
      9.06472206e-02 8.80576521e-02 1.15316465e-01 1.92832753e-01
      1.56629354e-01 9.64104682e-02 6.40525520e-02 9.73021016e-02
      7.82567486e-02 8.25128406e-02 1.35013789e-01 2.29518607e-01
      2.29518607e-01 1.73529163e-01 1.31643787e-01 4.28995565e-02
      9.12684873e-02 1.12532273e-01 1.05204836e-01 1.56767607e-01
      2.29518607e-01 2.29518607e-01 2.29518607e-01 2.29518607e-01
      2.18578205e-01 2.29518607e-01 7.95958787e-02 5.52210771e-02
      1.16649933e-01 1.65086880e-01 2.29518607e-01 2.29518607e-01
      1.58074990e-01 1.01496972e-01 2.05880031e-01 1.24963820e-01
      8.88732150e-02 1.85868964e-01 2.29518607e-01 2.29518607e-01
      1.78999469e-01 1.26793697e-01 3.87834646e-02 6.60731867e-02
      8.91273096e-02 8.08789879e-02 1.64661378e-01 1.96081594e-01
      2.33714342e-01 1.26382187e-01 1.03307731e-01 8.67296457e-02
      1.21480808e-01 1.43189013e-01 1.04894802e-01 1.98972985e-01
      2.00318992e-01 2.33714342e-01 2.33714342e-01 2.33136088e-01
      9.48809385e-02 1.28961265e-01 1.16114609e-01 9.42062885e-02
      1.89732403e-01 1.61631286e-01 2.33714342e-01 2.33714342e-01
      2.33714342e-01 2.33714342e-01 2.21866488e-01 1.45584285e-01
      8.33739191e-02 1.29906952e-01 8.82610902e-02 2.33714342e-01
      9.64815691e-02 8.48341212e-02 8.00534412e-02 1.80551335e-01
      1.99975044e-01 1.10097043e-01 1.75549611e-01 1.76296219e-01
      2.00073451e-01 9.81713086e-02 1.21291339e-01 1.15953580e-01
      1.40802249e-01 1.30841792e-01 1.57811537e-01 2.12556943e-01
      2.03984201e-01 1.24253243e-01 1.59638390e-01 2.12556943e-01
      2.12556943e-01 2.12556943e-01 2.12556943e-01 1.19673103e-01
      1.48441479e-01 1.39061838e-01 2.12556943e-01 1.78163722e-01
      2.12556943e-01 1.90307289e-01 1.49872601e-01 1.37516886e-01
      1.47508025e-01 1.16856821e-01 2.10387766e-01 2.12556943e-01
      7.30040297e-02 9.85618979e-02 8.44756737e-02 9.48436782e-02
      4.76784930e-02 1.53089210e-01 2.56799549e-01 2.56799549e-01
      8.69085491e-02 7.78046399e-02 8.74681622e-02 1.22859880e-01
      9.63462740e-02 8.62196833e-02 2.48642057e-01 2.56799549e-01
      2.56799549e-01 1.76205695e-01 2.12539464e-01 2.56799549e-01
      2.26003468e-01 8.66319835e-02 4.65279408e-02 9.29304659e-02
      6.07972480e-02 1.01723209e-01 1.27682760e-01 2.18169644e-01
      2.56799549e-01 2.56799549e-01 2.17362747e-01 1.29032925e-01
      1.95449963e-01 1.52649611e-01 7.14012757e-02 9.99435484e-02
      1.14828780e-01 1.15662709e-01 1.15114674e-01 1.31372124e-01
      1.09561630e-01 1.77984610e-01 2.06218064e-01 2.15810761e-01
      2.15810761e-01 1.67045131e-01 9.91683453e-02 6.07169755e-02
      1.33229673e-01 8.78165364e-02 1.48808867e-01 2.15810761e-01
      2.15810761e-01 2.15810761e-01 1.47219062e-01 2.15810761e-01
      1.44288868e-01 2.15810761e-01 1.98125079e-01 1.92107573e-01
      1.75139025e-01 7.91439712e-02 1.04949683e-01 2.15810761e-01
      2.15810761e-01 6.06788360e-02 9.60477814e-02 1.34559497e-01
      1.77597031e-01 2.15810761e-01 1.96472645e-01 1.78964928e-01
      9.57820863e-02 8.10360238e-02 3.85979153e-02 9.34196562e-02
      7.60347620e-02 1.28022984e-01 2.35097364e-01 2.35097364e-01
      1.94937110e-01 9.64778513e-02 1.37337625e-01 9.82258618e-02
      1.75847426e-01 2.18852744e-01 2.35097364e-01 2.35097364e-01
      2.35097364e-01 2.09896415e-01 2.24493757e-01 2.35097364e-01
      1.26006231e-01 1.48950830e-01 7.05275312e-02 1.03675261e-01
      1.53880000e-01 1.44914791e-01 1.30658790e-01 1.41695783e-01
      2.35097364e-01 2.35097364e-01 2.35097364e-01 9.54100341e-02
      9.19776037e-02 1.31217733e-01 1.54118672e-01 9.40428972e-02
      1.18799359e-01 1.31899863e-01 1.06385529e-01 1.73007384e-01
      1.82631493e-01 1.85617730e-01 1.45418614e-01 1.97065994e-01
      2.41634682e-01 1.25651002e-01 1.10655397e-01 7.45048448e-02
      1.38592660e-01 6.50247931e-02 1.11423880e-01 2.07744762e-01
      2.41634682e-01 2.08655089e-01 1.77173197e-01 2.41634682e-01
      2.41634682e-01 1.84723437e-01 6.44374490e-02 8.84254798e-02
      1.31255716e-01 1.25661552e-01 1.16661750e-01 2.41634682e-01
      2.41634682e-01 2.41634682e-01 1.23608366e-01 3.82595621e-02
      8.59031603e-02 1.12268262e-01 1.13872856e-01 2.41634682e-01
      1.01208217e-01 9.21675265e-02 3.22907902e-02 6.81481212e-02
      8.40828866e-02 2.15001911e-01 2.27441400e-01 2.46083885e-01
      1.01231061e-01 2.34730393e-01 1.34024367e-01 7.76035711e-02
      7.35011175e-02 1.27750501e-01 1.94311738e-01 2.12934747e-01
      2.46083885e-01 2.46083885e-01 2.46083885e-01 2.46083885e-01
      1.64959386e-01 1.20022081e-01 7.75367320e-02 1.21378832e-01
      8.41290057e-02 8.18817019e-02 1.33572310e-01 2.46083885e-01
      2.46083885e-01 2.31208652e-01 1.36699945e-01 1.23317756e-01
      1.30499721e-01 1.10941648e-01 9.05564129e-02 1.76527932e-01
